{"learner":{"attributes":{},"feature_names":["header","obj","endobj","stream","endstream","xref","trailer","startxref","/Page","/Encrypt","/ObjStm","/JS","/JavaScript","/AA","ActionForm","Decode-Media","Launch-EmbeddedFile","XFA-Colors"],"feature_types":["int","int","int","int","int","int","int","int","int","int","int","int","int","int","int","int","int","int"],"gradient_booster":{"model":{"gbtree_model_param":{"num_parallel_tree":"1","num_trees":"100"},"iteration_indptr":[0,1,2,3,4,5,6,7,8,9,10,11,12,13,14,15,16,17,18,19,20,21,22,23,24,25,26,27,28,29,30,31,32,33,34,35,36,37,38,39,40,41,42,43,44,45,46,47,48,49,50,51,52,53,54,55,56,57,58,59,60,61,62,63,64,65,66,67,68,69,70,71,72,73,74,75,76,77,78,79,80,81,82,83,84,85,86,87,88,89,90,91,92,93,94,95,96,97,98,99,100],"tree_info":[0,0,0,0,0,0,0,0,0,0,0,0,0,0,0,0,0,0,0,0,0,0,0,0,0,0,0,0,0,0,0,0,0,0,0,0,0,0,0,0,0,0,0,0,0,0,0,0,0,0,0,0,0,0,0,0,0,0,0,0,0,0,0,0,0,0,0,0,0,0,0,0,0,0,0,0,0,0,0,0,0,0,0,0,0,0,0,0,0,0,0,0,0,0,0,0,0,0,0,0],"trees":[{"base_weights":[3.7391834E-2,1.0957135E0,-2.7752938E0,-2.0615349E-2,1.4734751E0,-2.8631775E0,-1.1595535E0,1.5002333E-1,-9.768002E-1,1.4991232E0,-1.7051442E0,-2.8684897E0,1.3768213E-2,1.1294173E0,-2.0183346E0,-2.4965637E0,1.4963432E-1,1.5017478E-1,7.6774156E-1,-3.0155796E-1,-2.653821E-1,-2.5069132E0,-2.9173567E0,1.3845947E-1,-1.9773145E-1,-2.3505893E0,6.079737E-1,-2.9321706E0,-2.0965395E0,9.469068E-2,1.0821232E0,3.6198473E-1,-1.5479317E-1,-2.901961E-1,-6.047925E-1,-2.9409237E0,-2.3783004E0,-1.0963186E-1,7.943152E-2,-2.532582E0,3.4071278E-2,1.0966923E-1,-4.2045273E-2,-1.033292E-1,-2.949138E-1,-1.069317E0,-2.7843174E-1,-4.7077425E-2,7.943152E-2,3.2165673E-2,1.1920233E-1,7.807614E-2,-1.9773145E-1,-2.9244652E-1,-2.1139935E-1,-1.2455671E-1,-2.94479E-1,1.06543945E-2,-2.8219962E0,-5.0719626E-2,-2.6693377E0,-1.8409853E0,-3.7677622E-1,-1.0963186E-1,7.943152E-2,1.5730162E-1,-1.2871249E0,8.6441606E-1,-1.8139413E-1,-6.2366016E-2,-2.8803435E-1,-1.3706723E0,-2.7838394E-1,-2.0261183E-1,8.622392E-2,4.5576416E-2,-1.7586967E-1,4.383238E-2,-9.889653E-2,-1.7286867E-1,3.2165673E-2,1.0966923E-1,2.473307E-2,-1.9862239E-1,7.111278E-4],"categories":[],"categories_nodes":[],"categories_segments":[],"categories_sizes":[],"default_left":[0,0,0,0,0,0,0,0,0,0,0,0,0,0,0,0,0,0,0,0,0,0,0,0,0,0,0,0,0,0,0,0,0,0,0,0,0,0,0,0,0,0,0,0,0,0,0,0,0,0,0,0,0,0,0,0,0,0,0,0,0,0,0,0,0,0,0,0,0,0,0,0,0,0,0,0,0,0,0,0,0,0,0,0,0],"id":0,"left_children":[1,3,5,7,9,11,13,-1,15,17,19,21,-1,23,25,27,-1,-1,29,31,-1,33,35,-1,37,39,41,43,45,47,49,51,-1,-1,53,55,57,-1,-1,59,-1,-1,-1,-1,-1,61,-1,-1,-1,-1,-1,-1,63,65,-1,-1,-1,67,69,-1,71,73,75,-1,-1,77,79,81,-1,-1,-1,83,-1,-1,-1,-1,-1,-1,-1,-1,-1,-1,-1,-1,-1],"loss_changes":[1.0452907E4,1.0760027E3,1.330044E2,9.410226E2,1.5797461E2,1.48984375E1,1.0293678E2,0E0,1.4970023E3,2.4780273E0,2.0141186E1,8.735352E0,0E0,5.222065E0,3.4234375E1,3.679785E1,0E0,0E0,1.7616515E0,6.7390246E0,0E0,8.484473E1,3.0927734E0,0E0,3.7514095E0,1.7309418E1,2.9824529E0,6.729126E-1,9.026831E1,1.917151E0,1.1042881E-1,1.4871359E0,0E0,0E0,9.319895E0,1.2915039E0,4.0825348E1,0E0,0E0,7.3904724E0,0E0,0E0,0E0,0E0,0E0,2.8460266E1,0E0,0E0,0E0,0E0,0E0,0E0,3.7514095E0,8.535767E0,0E0,0E0,0E0,1.2510929E1,2.3675537E0,0E0,5.4689026E-1,1.4531258E1,3.5325905E1,0E0,0E0,4.852707E0,4.7536926E0,5.117564E-1,0E0,0E0,0E0,3.7008677E0,0E0,0E0,0E0,0E0,0E0,0E0,0E0,0E0,0E0,0E0,0E0,0E0,0E0],"parents":[2147483647,0,0,1,1,2,2,3,3,4,4,5,5,6,6,8,8,9,9,10,10,11,11,13,13,14,14,15,15,18,18,19,19,21,21,22,22,24,24,25,25,26,26,27,27,28,28,29,29,30,30,31,31,34,34,35,35,36,36,39,39,45,45,52,52,53,53,57,57,58,58,60,60,61,61,62,62,65,65,66,66,67,67,71,71],"right_children":[2,4,6,8,10,12,14,-1,16,18,20,22,-1,24,26,28,-1,-1,30,32,-1,34,36,-1,38,40,42,44,46,48,50,52,-1,-1,54,56,58,-1,-1,60,-1,-1,-1,-1,-1,62,-1,-1,-1,-1,-1,-1,64,66,-1,-1,-1,68,70,-1,72,74,76,-1,-1,78,80,82,-1,-1,-1,84,-1,-1,-1,-1,-1,-1,-1,-1,-1,-1,-1,-1,-1],"split_conditions":[2E0,1E0,1E0,1E0,8E1,9E0,5.4E1,1.5002333E-1,1E0,3.8E1,2E0,2.1E1,1.3768213E-2,3.6E1,9E0,7E0,1.4963432E-1,1.5017478E-1,3E0,3.82E2,-2.653821E-1,1E0,9E0,1.3845947E-1,2E0,7E0,1.23E2,6E0,2E0,3E0,5.1E1,1.64E2,-1.5479317E-1,-2.901961E-1,2E0,5E0,4.4E1,-1.0963186E-1,7.943152E-2,1.5E1,3.4071278E-2,1.0966923E-1,-4.2045273E-2,-1.033292E-1,-2.949138E-1,5E0,-2.7843174E-1,-4.7077425E-2,7.943152E-2,3.2165673E-2,1.1920233E-1,7.807614E-2,3.7E1,1.2E1,-2.1139935E-1,-1.2455671E-1,-2.94479E-1,1E1,9E0,-5.0719626E-2,8.3E1,2E0,1.4E1,-1.0963186E-1,7.943152E-2,1.9E1,1.8E1,4.3E1,-1.8139413E-1,-6.2366016E-2,-2.8803435E-1,8E1,-2.7838394E-1,-2.0261183E-1,8.622392E-2,4.5576416E-2,-1.7586967E-1,4.383238E-2,-9.889653E-2,-1.7286867E-1,3.2165673E-2,1.0966923E-1,2.473307E-2,-1.9862239E-1,7.111278E-4],"split_indices":[7,12,12,7,1,7,1,0,17,1,5,1,0,1,8,2,0,0,11,1,0,10,16,0,8,7,1,2,8,8,1,1,0,0,8,3,3,0,0,3,0,0,0,0,0,3,0,0,0,0,0,0,8,3,0,0,0,16,10,0,1,16,3,0,0,1,1,1,0,0,0,1,0,0,0,0,0,0,0,0,0,0,0,0,0],"split_type":[0,0,0,0,0,0,0,0,0,0,0,0,0,0,0,0,0,0,0,0,0,0,0,0,0,0,0,0,0,0,0,0,0,0,0,0,0,0,0,0,0,0,0,0,0,0,0,0,0,0,0,0,0,0,0,0,0,0,0,0,0,0,0,0,0,0,0,0,0,0,0,0,0,0,0,0,0,0,0,0,0,0,0,0,0],"sum_hessian":[3.509523E3,2.5504736E3,9.5904944E2,6.450935E2,1.90538E3,9.0884326E2,5.0206173E1,2.4879947E2,3.9629404E2,1.8906528E3,1.4727143E1,9.072813E2,1.5619698E0,1.3611451E1,3.659472E1,2.454524E2,1.5084166E2,1.882843E3,7.809849E0,6.471018E0,8.256126E0,1.1424693E2,7.9303436E2,1.1380066E1,2.2313855E0,3.2578228E1,4.016494E0,1.1447007E2,1.3098233E2,2.900801E0,4.909048E0,4.6859093E0,1.7851083E0,9.416447E1,2.0082468E1,7.555471E2,3.7487274E1,1.1156927E0,1.1156927E0,3.056998E1,2.008247E0,2.6776624E0,1.3388312E0,1.5619698E0,1.12908104E2,5.355325E1,7.742908E1,1.7851083E0,1.1156927E0,1.1156927E0,3.7933552E0,2.454524E0,2.2313855E0,1.7627945E1,2.454524E0,2.454524E0,7.530926E2,6.0247407E0,3.1462534E1,2.2313855E0,2.8338594E1,2.454524E1,2.900801E1,1.1156927E0,1.1156927E0,1.2718897E1,4.909048E0,4.462771E0,1.5619698E0,1.1156927E0,3.0346842E1,3.347078E0,2.4991516E1,2.3206408E1,1.3388312E0,1.8520498E1,1.0487512E1,1.07106495E1,2.008247E0,3.7933552E0,1.1156927E0,2.6776624E0,1.7851083E0,2.008247E0,1.3388312E0],"tree_param":{"num_deleted":"0","num_feature":"18","num_nodes":"85","size_leaf_vector":"1"}},{"base_weights":[3.438289E-2,1.0301028E0,-2.312162E0,-2.1983828E-1,1.3736956E0,-2.3804166E0,-9.723588E-1,-2.0578094E0,1.416437E0,1.4259664E0,-1.136002E0,-2.3863919E0,5.9803348E-2,1.1011487E0,-1.7911782E0,4.1894168E-1,-2.3126693E0,1.4269371E-1,-6.599089E-2,1.4289893E-1,-8.803989E-2,5.7899438E-2,-2.4312332E-1,-2.3911052E0,8.624318E-2,1.3390881E-1,-9.5385455E-2,-2.0099425E0,8.077547E-2,1.3836871E-1,-1.5835867E0,-2.3692477E-1,-1.2895653E0,9.871949E-1,-1.3277066E0,-2.1864638E0,-2.42316E0,-2.2998545E0,1.9864073E-1,-2.3214512E-2,-1.998145E-1,-1.9003049E-1,-8.561611E-1,-6.1175328E-2,1.1806978E-1,7.255248E-2,-2.0932563E-1,-2.4598368E-1,-9.7992766E-1,-7.588086E-2,-2.4250102E-1,-9.221363E-2,-2.3657925E-1,-1.2167131E-1,1.0684126E-1,-8.9741684E-2,-1.7431104E-1,1.6249862E-1,-1.7893474E0,-5.826953E-2,6.700741E-2,-7.437684E-2,8.229239E-2,-2.024225E-1,-4.4645593E-2],"categories":[],"categories_nodes":[],"categories_segments":[],"categories_sizes":[],"default_left":[0,0,0,0,0,0,0,0,0,0,0,0,0,0,0,0,0,0,0,0,0,0,0,0,0,0,0,0,0,0,0,0,0,0,0,0,0,0,0,0,0,0,0,0,0,0,0,0,0,0,0,0,0,0,0,0,0,0,0,0,0,0,0,0,0],"id":1,"left_children":[1,3,5,7,9,11,13,15,17,19,21,23,-1,25,27,29,31,-1,-1,-1,-1,33,-1,35,-1,-1,-1,37,-1,-1,39,-1,41,43,45,47,49,51,53,-1,-1,-1,55,-1,-1,-1,-1,-1,57,-1,-1,-1,-1,-1,-1,59,-1,61,63,-1,-1,-1,-1,-1,-1],"loss_changes":[8.13999E3,1.0507517E3,9.259912E1,1.5915668E3,2.5331836E2,1.8990723E1,9.026314E1,1.5826733E2,7.047058E0,1.436499E1,6.153571E1,1.7146973E1,0E0,8.778591E0,2.3035904E1,4.8744232E1,1.0032593E1,0E0,0E0,0E0,0E0,2.917011E1,0E0,1.15625E0,0E0,0E0,0E0,2.2882355E1,0E0,0E0,4.1866875E0,0E0,2.090065E0,4.90664E0,1.5841488E1,4.4918335E1,7.5097656E-1,6.381378E-1,7.4360023E0,0E0,0E0,0E0,6.6642604E0,0E0,0E0,0E0,0E0,0E0,2.6338215E1,0E0,0E0,0E0,0E0,0E0,0E0,2.8014069E0,0E0,8.152272E0,4.3228264E0,0E0,0E0,0E0,0E0,0E0,0E0],"parents":[2147483647,0,0,1,1,2,2,3,3,4,4,5,5,6,6,7,7,8,8,9,9,10,10,11,11,13,13,14,14,15,15,16,16,21,21,23,23,27,27,30,30,32,32,33,33,34,34,35,35,36,36,37,37,38,38,42,42,48,48,55,55,57,57,58,58],"right_children":[2,4,6,8,10,12,14,16,18,20,22,24,-1,26,28,30,32,-1,-1,-1,-1,34,-1,36,-1,-1,-1,38,-1,-1,40,-1,42,44,46,48,50,52,54,-1,-1,-1,56,-1,-1,-1,-1,-1,58,-1,-1,-1,-1,-1,-1,60,-1,62,64,-1,-1,-1,-1,-1,-1],"split_conditions":[2E0,1E0,1E0,1E0,4.8E1,9E0,3.6E1,1E0,2.8E1,6E0,1E0,1E0,5.9803348E-2,1.7E1,1E0,1E0,1.5E1,1.4269371E-1,-6.599089E-2,1.4289893E-1,-8.803989E-2,1.03E2,-2.4312332E-1,2.3E1,8.624318E-2,1.3390881E-1,-9.5385455E-2,5E0,8.077547E-2,1.3836871E-1,4E0,-2.3692477E-1,5E0,5.5E1,1.4E1,1.5E1,5E0,1.5E1,4E0,-2.3214512E-2,-1.998145E-1,-1.9003049E-1,6.5E1,-6.1175328E-2,1.1806978E-1,7.255248E-2,-2.0932563E-1,-2.4598368E-1,8E0,-7.588086E-2,-2.4250102E-1,-9.221363E-2,-2.3657925E-1,-1.2167131E-1,1.0684126E-1,4.2E1,-1.7431104E-1,6E0,1.7E1,-5.826953E-2,6.700741E-2,-7.437684E-2,8.229239E-2,-2.024225E-1,-4.4645593E-2],"split_indices":[7,14,11,12,2,7,1,6,1,10,10,17,0,0,17,10,0,0,0,0,0,1,0,1,0,0,0,7,0,0,10,0,3,1,0,0,3,3,11,0,0,0,1,0,0,0,0,0,3,0,0,0,0,0,0,2,0,3,3,0,0,0,0,0,0],"split_type":[0,0,0,0,0,0,0,0,0,0,0,0,0,0,0,0,0,0,0,0,0,0,0,0,0,0,0,0,0,0,0,0,0,0,0,0,0,0,0,0,0,0,0,0,0,0,0,0,0,0,0,0,0,0,0,0,0,0,0,0,0,0,0,0,0],"sum_hessian":[3.4818176E3,2.4449163E3,1.0369014E3,5.27243E2,1.9176733E3,9.858991E2,5.10022E1,2.4819574E2,2.7904724E2,1.878971E3,3.870241E1,9.8412366E2,1.7754742E0,1.4341138E1,3.6661064E1,2.3096655E1,2.2509908E2,2.779544E2,1.0928369E0,1.8768914E3,2.079614E0,2.0636065E1,1.8066347E1,9.829616E2,1.16204E0,1.3165179E1,1.1759579E0,3.402375E1,2.6373105E0,1.5795829E1,7.3008256E0,2.1205649E2,1.3042592E1,1.2524016E1,8.112047E0,1.4249242E2,8.404692E2,3.0039286E1,3.9844658E0,2.0800233E0,5.220803E0,4.0088477E0,9.033744E0,1.118682E0,1.1405334E1,2.2173414E0,5.8947053E0,1.15323944E2,2.7168467E1,1.3897418E0,8.3907947E2,2.0564475E0,2.798284E1,1.3647542E0,2.6197114E0,5.436878E0,3.596866E0,1.1598053E1,1.5570414E1,3.4388978E0,1.9979801E0,4.8358603E0,6.762193E0,1.2820662E1,2.7497525E0],"tree_param":{"num_deleted":"0","num_feature":"18","num_nodes":"65","size_leaf_vector":"1"}},{"base_weights":[1.979196E-2,9.1424185E-1,-1.8365659E0,-4.0950853E-1,1.3535354E0,-2.0060818E0,-2.2637996E-1,-1.8704512E0,1.3647793E-1,1.3699707E0,1.8834096E-1,-2.0520296E0,1.286042E-1,9.9529696E-1,-1.6245455E0,-1.994506E0,6.185779E-1,1.371639E0,-1.7733071E-2,-1.8138526E-1,1.2967123E-1,-2.0564888E0,-9.281712E-2,1.2164289E0,-9.701322E-1,5.8959585E-1,-1.8815386E0,-4.0414786E-1,-2.0841656E0,9.8105866E-1,-1.4746748E-1,1.3727187E-1,-1.4321613E-2,-1.9021459E0,-2.126092E-1,3.1849254E-2,-4.4839256E-2,2.2076933E-1,1.2818916E0,6.2354773E-2,-1.808698E-1,-8.523344E-2,1.130281E-1,4.085499E-3,-2.0295181E0,1.2280091E-1,-1.8926243E0,-2.1173673E0,-7.001393E-1,2.7498284E-1,1.3300674E-1,-1.2678682E0,-2.0132842E0,-6.633472E-2,9.274298E-2,1.2968092E-1,3.3026557E-2,-1.311884E-1,9.558828E-2,-2.1090133E-1,-6.279516E-1,-5.5423576E-2,-2.099291E-1,-9.468981E-1,-2.1265058E-1,-1.2997203E-1,-1.8199398E-1,8.861943E-2,-7.7410944E-2,1.198879E-1,-1.6063181E0,-2.0226035E0,-3.5752073E-2,4.8486587E-2,-1.359913E-1,6.0725426E-3,-1.4190194E-1,3.6374427E-2,-9.275071E-2,-1.7438065E-1,7.102857E-2,-1.8068211E-1,-2.1147004E-1],"categories":[],"categories_nodes":[],"categories_segments":[],"categories_sizes":[],"default_left":[0,0,0,0,0,0,0,0,0,0,0,0,0,0,0,0,0,0,0,0,0,0,0,0,0,0,0,0,0,0,0,0,0,0,0,0,0,0,0,0,0,0,0,0,0,0,0,0,0,0,0,0,0,0,0,0,0,0,0,0,0,0,0,0,0,0,0,0,0,0,0,0,0,0,0,0,0,0,0,0,0,0,0],"id":2,"left_children":[1,3,5,7,9,11,13,15,-1,17,19,21,-1,23,25,27,29,31,-1,-1,-1,33,35,37,39,41,43,45,47,49,-1,-1,-1,51,-1,-1,-1,53,55,-1,-1,-1,-1,57,59,-1,61,63,65,67,-1,69,71,-1,-1,-1,-1,-1,-1,-1,73,-1,-1,75,-1,-1,77,-1,-1,-1,79,81,-1,-1,-1,-1,-1,-1,-1,-1,-1,-1,-1],"loss_changes":[5.6419873E3,1.333996E3,3.0112305E2,1.4855668E3,3.271753E1,1.538291E2,1.8330103E2,9.82478E1,0E0,4.6262207E0,5.8074593E1,8.424805E0,0E0,2.6121025E1,2.9548965E1,4.186487E1,1.3343562E1,2.9709473E0,0E0,0E0,0E0,6.5253906E0,6.23485E-1,3.1079712E0,9.627172E0,5.609379E0,1.2570633E1,4.4170628E1,1.1535156E1,3.0756903E0,0E0,0E0,0E0,1.967212E1,0E0,0E0,0E0,3.375213E0,2.6174164E-1,0E0,0E0,0E0,0E0,6.607382E0,3.3269806E0,0E0,1.4372253E0,9.4018555E-1,2.2893956E0,4.456494E0,0E0,4.342495E1,3.3901367E0,0E0,0E0,0E0,0E0,0E0,0E0,0E0,3.6444407E0,0E0,0E0,1.9615207E0,0E0,0E0,2.5849724E0,0E0,0E0,0E0,1.5296646E1,1.442749E0,0E0,0E0,0E0,0E0,0E0,0E0,0E0,0E0,0E0,0E0,0E0],"parents":[2147483647,0,0,1,1,2,2,3,3,4,4,5,5,6,6,7,7,9,9,10,10,11,11,13,13,14,14,15,15,16,16,17,17,21,21,22,22,23,23,24,24,25,25,26,26,27,27,28,28,29,29,33,33,37,37,38,38,43,43,44,44,46,46,47,47,48,48,49,49,51,51,52,52,60,60,63,63,66,66,70,70,71,71],"right_children":[2,4,6,8,10,12,14,16,-1,18,20,22,-1,24,26,28,30,32,-1,-1,-1,34,36,38,40,42,44,46,48,50,-1,-1,-1,52,-1,-1,-1,54,56,-1,-1,-1,-1,58,60,-1,62,64,66,68,-1,70,72,-1,-1,-1,-1,-1,-1,-1,74,-1,-1,76,-1,-1,78,-1,-1,-1,80,82,-1,-1,-1,-1,-1,-1,-1,-1,-1,-1,-1],"split_conditions":[2.3E1,1E0,1E0,1E0,2E0,1E0,2E0,1.6E1,1.3647793E-1,1E1,1E0,9E0,1.286042E-1,6.5E1,1E0,1E0,5E0,1.6E1,-1.7733071E-2,-1.8138526E-1,1.2967123E-1,2E0,2.5E1,1E0,1.4E1,2E0,4.9E1,1E0,1.5E1,1.7E1,-1.4746748E-1,1.3727187E-1,-1.4321613E-2,1.3E1,-2.126092E-1,3.1849254E-2,-4.4839256E-2,7E0,1E0,6.2354773E-2,-1.808698E-1,-8.523344E-2,1.130281E-1,2E0,5E0,1.2280091E-1,9E0,1.2E1,1.4E1,1.5E1,1.3300674E-1,1E0,1E0,-6.633472E-2,9.274298E-2,1.2968092E-1,3.3026557E-2,-1.311884E-1,9.558828E-2,-2.1090133E-1,2.28E2,-5.5423576E-2,-2.099291E-1,1.7E1,-2.1265058E-1,-1.2997203E-1,1.9E1,8.861943E-2,-7.7410944E-2,1.198879E-1,2E0,7E0,-3.5752073E-2,4.8486587E-2,-1.359913E-1,6.0725426E-3,-1.4190194E-1,3.6374427E-2,-9.275071E-2,-1.7438065E-1,7.102857E-2,-1.8068211E-1,-2.1147004E-1],"split_indices":[2,14,11,12,6,17,6,0,0,16,11,6,0,4,14,6,10,4,0,0,0,6,4,14,0,12,1,10,0,0,0,0,0,4,0,0,0,4,10,0,0,0,0,12,14,0,4,0,1,2,0,6,9,0,0,0,0,0,0,0,1,0,0,1,0,0,1,0,0,0,14,10,0,0,0,0,0,0,0,0,0,0,0],"split_type":[0,0,0,0,0,0,0,0,0,0,0,0,0,0,0,0,0,0,0,0,0,0,0,0,0,0,0,0,0,0,0,0,0,0,0,0,0,0,0,0,0,0,0,0,0,0,0,0,0,0,0,0,0,0,0,0,0,0,0,0,0,0,0,0,0,0,0,0,0,0,0,0,0,0,0,0,0,0,0,0,0,0,0],"sum_hessian":[3.3959187E3,2.2920479E3,1.1038711E3,5.7112115E2,1.7209266E3,9.9850525E2,1.0536581E2,3.1318854E2,2.579326E2,1.696817E3,2.4109589E1,9.851326E2,1.3372644E1,5.638572E1,4.8980083E1,2.985093E2,1.4679214E1,1.6951028E3,1.7142711E0,8.364042E0,1.5745546E1,9.8284595E2,2.286633E0,5.1025852E1,5.359869E0,4.9592376E0,4.4020847E1,1.622483E1,2.822845E2,1.2965371E1,1.7138418E0,1.6939893E3,1.113494E0,3.1427686E2,6.685691E2,1.1085799E0,1.178053E0,3.417632E0,4.760822E1,1.936326E0,3.423543E0,1.1952578E0,3.7639797E0,3.2740283E0,4.074682E1,7.8223686E0,8.402462E0,2.7515387E2,7.130606E0,4.8801947E0,8.085176E0,4.8707314E1,2.6556955E2,1.5454202E0,1.8722119E0,4.6516308E1,1.0919117E0,1.2153475E0,2.0586808E0,3.808209E1,2.6647282E0,1.61639E0,6.786072E0,2.9421268E0,2.7221176E2,2.6062868E0,4.5243196E0,3.1817503E0,1.6984441E0,5.5698624E0,4.313745E1,2.6386285E2,1.7066889E0,1.1912397E0,1.4734886E0,1.2167208E0,1.7254059E0,2.907806E0,1.6165135E0,4.0954117E1,2.1833322E0,8.5097786E1,1.7876506E2],"tree_param":{"num_deleted":"0","num_feature":"18","num_nodes":"83","size_leaf_vector":"1"}},{"base_weights":[4.3124687E-2,9.479606E-1,-1.8139893E0,-1.6871327E-1,1.2710459E0,-1.8619008E0,-8.881084E-1,-1.6208838E0,1.3164188E-1,1.3071504E0,-1.3596778E0,-1.8665799E0,9.321012E-2,1.0436251E0,-1.443656E0,3.9482176E-1,-1.809025E0,1.3180998E-1,-1.038768E0,1.07058026E-1,-1.832694E-1,-1.870658E0,2.7666146E-2,1.23024285E-1,-5.6921453E-3,8.04631E-2,-1.6249245E0,1.2832616E-1,-1.1806328E0,-1.9163816E-1,-1.6678507E0,-1.4684871E-1,7.904839E-2,-1.7355804E0,-1.9251153E-1,-1.7650752E0,8.83342E-2,-2.1430507E-1,-1.5614107E-1,-1.120687E0,-1.9105716E0,-1.8951286E0,-1.3290126E0,-2.47676E-3,-1.8454232E0,-5.454397E-2,1.679529E-2,-1.5648613E0,3.7255317E-1,-1.9363238E-1,-2.4207346E-2,-1.9122453E-1,-7.31842E-1,-2.8890175E-1,-1.6628749E0,-1.9048117E-1,-2.1489777E-2,-8.450394E-2,-1.6510226E-1,8.394973E-3,1.0235124E-1,3.528865E-2,-1.3380393E-1,5.135527E-2,-7.4815035E-2,-1.8038076E-1,-2.8505713E-2],"categories":[],"categories_nodes":[],"categories_segments":[],"categories_sizes":[],"default_left":[0,0,0,0,0,0,0,0,0,0,0,0,0,0,0,0,0,0,0,0,0,0,0,0,0,0,0,0,0,0,0,0,0,0,0,0,0,0,0,0,0,0,0,0,0,0,0,0,0,0,0,0,0,0,0,0,0,0,0,0,0,0,0,0,0,0,0],"id":3,"left_children":[1,3,5,7,9,11,13,15,-1,17,19,21,-1,23,25,27,29,-1,31,-1,-1,33,-1,-1,-1,-1,35,-1,37,-1,39,-1,-1,41,-1,43,-1,45,-1,47,49,51,53,-1,55,-1,-1,57,59,-1,-1,-1,61,63,65,-1,-1,-1,-1,-1,-1,-1,-1,-1,-1,-1,-1],"loss_changes":[5.5120645E3,7.9594507E2,4.6017822E1,1.0714509E3,1.642666E2,1.5085693E1,6.0300625E1,9.595593E1,0E0,4.472998E1,2.9150112E1,9.428467E0,0E0,2.702406E0,1.8818947E1,3.2673046E1,2.8771973E-1,0E0,7.7650814E0,0E0,0E0,4.1445312E0,0E0,0E0,0E0,0E0,1.5653496E1,0E0,2.810525E0,0E0,1.2070679E1,0E0,0E0,1.7107239E1,0E0,5.31057E0,0E0,5.4415077E-1,0E0,2.3997189E1,2.6553955E0,2.880371E0,3.0292053E1,0E0,3.1349335E0,0E0,0E0,3.0422974E-1,1.5863048E0,0E0,0E0,0E0,3.5868852E0,8.765692E0,1.2471222E1,0E0,0E0,0E0,0E0,0E0,0E0,0E0,0E0,0E0,0E0,0E0,0E0],"parents":[2147483647,0,0,1,1,2,2,3,3,4,4,5,5,6,6,7,7,9,9,10,10,11,11,13,13,14,14,15,15,16,16,18,18,21,21,26,26,28,28,30,30,33,33,35,35,37,37,39,39,40,40,41,41,42,42,44,44,47,47,48,48,52,52,53,53,54,54],"right_children":[2,4,6,8,10,12,14,16,-1,18,20,22,-1,24,26,28,30,-1,32,-1,-1,34,-1,-1,-1,-1,36,-1,38,-1,40,-1,-1,42,-1,44,-1,46,-1,48,50,52,54,-1,56,-1,-1,58,60,-1,-1,-1,62,64,66,-1,-1,-1,-1,-1,-1,-1,-1,-1,-1,-1,-1],"split_conditions":[2E0,1E0,1E0,1E0,2E0,1E0,5.4E1,1E0,1.3164188E-1,1.08E2,3.2E1,9E0,9.321012E-2,3.6E1,1E0,1E0,7E0,1.3180998E-1,5.9E1,1.07058026E-1,-1.832694E-1,2E0,2.7666146E-2,1.23024285E-1,-5.6921453E-3,8.04631E-2,6E0,1.2832616E-1,4E0,-1.9163816E-1,2E0,-1.4684871E-1,7.904839E-2,1E0,-1.9251153E-1,1.5E1,8.83342E-2,1.4E1,-1.5614107E-1,6E0,1E0,3E0,2E0,-2.47676E-3,7E0,-5.454397E-2,1.679529E-2,8E0,4.3E1,-1.9363238E-1,-2.4207346E-2,-1.9122453E-1,5.5E1,1.9E1,9E0,-1.9048117E-1,-2.1489777E-2,-8.450394E-2,-1.6510226E-1,8.394973E-3,1.0235124E-1,3.528865E-2,-1.3380393E-1,5.135527E-2,-7.4815035E-2,-1.8038076E-1,-2.8505713E-2],"split_indices":[7,14,12,12,10,17,1,5,0,1,1,7,0,1,14,10,1,0,8,0,0,8,0,0,0,0,16,0,10,0,8,0,0,10,0,3,0,1,0,3,15,7,10,0,5,0,0,1,1,0,0,0,1,1,16,0,0,0,0,0,0,0,0,0,0,0,0],"split_type":[0,0,0,0,0,0,0,0,0,0,0,0,0,0,0,0,0,0,0,0,0,0,0,0,0,0,0,0,0,0,0,0,0,0,0,0,0,0,0,0,0,0,0,0,0,0,0,0,0,0,0,0,0,0,0,0,0,0,0,0,0,0,0,0,0,0,0],"sum_hessian":[3.2782188E3,2.2045784E3,1.0736404E3,4.9481976E2,1.7097587E3,1.01985504E3,5.378535E1,2.5014001E2,2.4467976E2,1.6871077E3,2.2651028E1,1.0184813E3,1.3736966E0,1.1817017E1,4.1968334E1,2.1260529E1,2.2887949E2,1.6797059E3,7.4016857E0,3.4845958E0,1.9166431E1,1.016674E3,1.8073627E0,1.0002981E1,1.8140349E0,2.8746731E0,3.909366E1,1.3712921E1,7.547607E0,1.2286883E2,1.06010666E2,6.153383E0,1.248303E0,3.0155515E2,7.1511884E2,3.7305492E1,1.7881668E0,2.5751836E0,4.9724236E0,3.430173E1,7.170894E1,2.1393858E2,8.7616554E1,1.7040772E0,3.5601414E1,1.1511233E0,1.4240603E0,2.6400702E1,7.90103E0,7.04609E1,1.2480363E0,2.1020181E2,3.7367718E0,2.1743238E1,6.5873314E1,3.418797E1,1.4134445E0,3.9776502E0,2.2423052E1,6.25627E0,1.6447603E0,1.4894395E0,2.2473323E0,7.871304E0,1.3871935E1,5.9480106E1,6.3932095E0],"tree_param":{"num_deleted":"0","num_feature":"18","num_nodes":"67","size_leaf_vector":"1"}},{"base_weights":[2.8695125E-2,8.9339346E-1,-1.6624304E0,-2.0204061E-1,1.2214046E0,-1.6731141E0,9.431093E-2,1.162642E0,-1.0996681E0,1.2728872E0,-8.674625E-1,-1.682395E0,1.0578413E-1,1.2602988E0,-9.445139E-1,-1.5254099E0,-1.2101286E-1,1.276554E0,-1.0643566E-1,-6.258723E-2,-1.690021E-1,-1.5442822E0,-1.7406384E0,4.996138E-1,1.2743939E0,-1.3410699E0,8.1234545E-2,1.15968965E-1,-1.7245188E-1,2.7270523E-1,-1.6234797E0,1.2788042E-1,7.2368276E-1,8.177146E-1,-1.4667822E0,-1.5714183E0,2.4368526E-2,-1.7447181E0,-4.93904E-1,9.667976E-2,-4.9206313E-2,1.2831299E-1,4.1842312E-1,-5.382326E-2,-1.5679799E-1,-1.6695921E-1,6.805729E-1,-1.6840857E-1,-5.2668083E-2,1.0944847E-1,-2.1630336E-2,-5.813237E-1,1.2310119E-1,-2.9311582E-2,-1.6723739E-1,-1.5847151E0,6.1247177E-2,1.2860785E-1,-1.3991925E-1,-1.7470452E-1,-5.9905905E-2,7.228355E-2,-1.2156393E-1,-4.6487763E-3,7.279708E-2,8.1613827E-1,-1.4026076E-1,1.0071061E-2,-9.965479E-2,-1.4878335E0,-1.7527638E-1,7.31525E-2,-6.4386E-2,9.29117E-2,-9.854401E-2,-3.7088335E-2,-1.5437676E-1],"categories":[],"categories_nodes":[],"categories_segments":[],"categories_sizes":[],"default_left":[0,0,0,0,0,0,0,0,0,0,0,0,0,0,0,0,0,0,0,0,0,0,0,0,0,0,0,0,0,0,0,0,0,0,0,0,0,0,0,0,0,0,0,0,0,0,0,0,0,0,0,0,0,0,0,0,0,0,0,0,0,0,0,0,0,0,0,0,0,0,0,0,0,0,0,0,0],"id":4,"left_children":[1,3,5,7,9,11,-1,13,15,17,19,21,-1,23,25,27,29,31,-1,33,-1,35,37,39,41,43,-1,-1,-1,45,47,-1,49,51,53,55,57,59,61,-1,-1,-1,63,-1,-1,-1,65,-1,-1,-1,-1,67,-1,-1,-1,69,71,-1,-1,-1,-1,-1,-1,-1,-1,73,-1,-1,-1,75,-1,-1,-1,-1,-1,-1,-1],"loss_changes":[4.55579E3,7.409402E2,3.0919434E1,5.8421747E2,1.7172021E2,2.8395264E1,0E0,4.014467E1,1.1963489E2,1.4631592E1,2.5552992E1,5.7333984E0,0E0,1.3076477E0,7.329209E0,1.0909158E2,5.2655384E1,9.9902344E-1,0E0,2.6696857E1,0E0,1.363446E1,2.8439941E0,2.7662258E0,7.8967285E-1,5.5590916E-1,0E0,0E0,0E0,5.7218998E1,3.4082413E-1,0E0,3.2251153E0,8.417927E0,1.5140839E0,6.9136353E0,1.3323735E1,8.881836E-1,4.1903E0,0E0,0E0,0E0,5.0531936E-1,0E0,0E0,0E0,1.7868277E1,0E0,0E0,0E0,0E0,1.1530054E0,0E0,0E0,0E0,2.463501E0,2.1248574E0,0E0,0E0,0E0,0E0,0E0,0E0,0E0,0E0,1.2361015E1,0E0,0E0,0E0,1.21848755E1,0E0,0E0,0E0,0E0,0E0,0E0,0E0],"parents":[2147483647,0,0,1,1,2,2,3,3,4,4,5,5,7,7,8,8,9,9,10,10,11,11,13,13,14,14,15,15,16,16,17,17,19,19,21,21,22,22,23,23,24,24,25,25,29,29,30,30,32,32,33,33,34,34,35,35,36,36,37,37,38,38,42,42,46,46,51,51,55,55,56,56,65,65,69,69],"right_children":[2,4,6,8,10,12,-1,14,16,18,20,22,-1,24,26,28,30,32,-1,34,-1,36,38,40,42,44,-1,-1,-1,46,48,-1,50,52,54,56,58,60,62,-1,-1,-1,64,-1,-1,-1,66,-1,-1,-1,-1,68,-1,-1,-1,70,72,-1,-1,-1,-1,-1,-1,-1,-1,74,-1,-1,-1,76,-1,-1,-1,-1,-1,-1,-1],"split_conditions":[2E0,1E0,9E0,1E0,4.3E1,1E0,9.431093E-2,1.6E1,1.4E1,3E1,1.5E1,2E0,1.0578413E-1,7E0,9.4E1,2E0,2E0,1.4E1,-1.0643566E-1,1E0,-1.690021E-1,9E0,8E0,5E0,1E1,2E0,8.1234545E-2,1.15968965E-1,-1.7245188E-1,2E0,1E0,1.2788042E-1,1.5E1,4.9E1,7.2E1,1.025E3,4.8E1,1.7E1,8E1,9.667976E-2,-4.9206313E-2,1.2831299E-1,1.6E1,-5.382326E-2,-1.5679799E-1,-1.6695921E-1,2E0,-1.6840857E-1,-5.2668083E-2,1.0944847E-1,-2.1630336E-2,3E0,1.2310119E-1,-2.9311582E-2,-1.6723739E-1,1.9E1,2.1E1,1.2860785E-1,-1.3991925E-1,-1.7470452E-1,-5.9905905E-2,7.228355E-2,-1.2156393E-1,-4.6487763E-3,7.279708E-2,1.6E1,-1.4026076E-1,1.0071061E-2,-9.965479E-2,1E0,-1.7527638E-1,7.31525E-2,-6.4386E-2,9.29117E-2,-9.854401E-2,-3.7088335E-2,-1.5437676E-1],"split_indices":[7,14,7,5,1,17,0,3,0,3,0,8,0,1,1,3,8,3,0,13,0,16,5,2,3,8,0,0,0,3,15,0,0,3,1,14,1,16,1,0,0,0,0,0,0,0,15,0,0,0,0,8,0,0,0,3,1,0,0,0,0,0,0,0,0,0,0,0,0,5,0,0,0,0,0,0,0],"split_type":[0,0,0,0,0,0,0,0,0,0,0,0,0,0,0,0,0,0,0,0,0,0,0,0,0,0,0,0,0,0,0,0,0,0,0,0,0,0,0,0,0,0,0,0,0,0,0,0,0,0,0,0,0,0,0,0,0,0,0,0,0,0,0,0,0,0,0,0,0,0,0,0,0,0,0,0,0],"sum_hessian":[3.1134521E3,2.0604065E3,1.0530457E3,4.7487756E2,1.5855289E3,1.0491018E3,3.943862E0,1.8830228E2,2.865753E2,1.5477728E3,3.7756126E1,1.0459313E3,3.1705317E0,1.8034598E2,7.9563026E0,1.9931091E2,8.726438E1,1.5458016E3,1.9712486E0,1.9627077E1,1.8129047E1,3.18407E2,7.275243E2,3.943931E0,1.7640205E2,6.684216E0,1.2720866E0,1.342621E1,1.858847E2,6.979362E1,1.7470766E1,1.5382278E3,7.5737653E0,1.2320755E1,7.306323E0,3.129908E2,5.416196E0,7.2475323E2,2.7710426E0,2.6979854E0,1.2459458E0,1.741259E2,2.2761505E0,2.2159393E0,4.468277E0,1.1575715E1,5.82179E1,1.6048513E1,1.4222522E0,5.313396E0,2.2603693E0,2.7169955E0,9.603759E0,1.4506543E0,5.855669E0,3.1049146E2,2.4993567E0,2.9225235E0,2.4936724E0,7.2276025E2,1.99299E0,1.0311502E0,1.7398922E0,1.2494369E0,1.0267137E0,5.523185E1,2.9860506E0,1.3148003E0,1.4021953E0,2.0319899E2,1.07292465E2,1.2621169E0,1.23724E0,5.24283E1,2.8035512E0,1.0054312E1,1.9314467E2],"tree_param":{"num_deleted":"0","num_feature":"18","num_nodes":"77","size_leaf_vector":"1"}},{"base_weights":[2.3344848E-2,-1.0230371E0,1.1540908E0,-1.3221191E0,1.24863185E-1,1.247731E0,-9.5136625E-1,9.122608E-1,-1.5157838E0,1.2500976E-1,3.282682E-1,2.0346697E-1,-1.2989073E0,1.2420031E-1,-1.3759432E0,-1.5941234E0,-1.3864493E0,-4.96967E-2,7.510013E-2,7.0569134E-1,-8.947613E-1,-1.4610887E0,5.514614E-1,-3.4155484E-2,-1.4992456E-1,7.5881964E-1,-1.6251887E0,2.2408491E-1,-1.5159774E0,8.162134E-1,-1.621164E-2,-1.748916E-2,-1.2691821E-1,-1.5422468E0,-2.4831004E-1,9.8959185E-2,-3.878282E-2,1.1716681E-1,-1.1208149E-1,-1.627518E-1,-4.677928E-2,-6.515038E-1,4.7479123E-1,-1.2519231E-1,-1.5320053E0,9.4597846E-2,-1.0417068E-2,-5.0299364E-1,-1.630404E-1,5.632787E-2,-8.1567585E-2,4.625288E-1,-1.377093E-1,9.5514464E-1,1.6280733E-2,5.9231025E-1,-1.1079575E-1,-1.5678096E0,-1.1568943E0,-1.3235547E-1,4.5264028E-2,5.7445616E-3,8.3231136E-2,3.7215497E-2,1.0320293E-1,7.408135E-2,-6.1646666E-2,9.7022764E-2,3.6219537E-4,-1.11360684E-1,-1.5964785E-1,9.869005E-2,-1.5432127E-1],"categories":[],"categories_nodes":[],"categories_segments":[],"categories_sizes":[],"default_left":[0,0,0,0,0,0,0,0,0,0,0,0,0,0,0,0,0,0,0,0,0,0,0,0,0,0,0,0,0,0,0,0,0,0,0,0,0,0,0,0,0,0,0,0,0,0,0,0,0,0,0,0,0,0,0,0,0,0,0,0,0,0,0,0,0,0,0,0,0,0,0,0,0],"id":5,"left_children":[1,3,5,7,-1,9,11,13,15,-1,17,19,21,-1,23,25,27,-1,-1,29,31,33,35,-1,-1,37,39,41,43,45,-1,-1,-1,47,49,-1,-1,-1,-1,-1,-1,51,53,55,57,-1,-1,59,-1,-1,-1,61,-1,63,65,67,-1,69,71,-1,-1,-1,-1,-1,-1,-1,-1,-1,-1,-1,-1,-1,-1],"loss_changes":[3.5015156E3,1.0459401E3,2.8160974E2,5.8932275E2,0E0,2.553711E0,2.4799915E1,8.3948944E1,1.046167E1,0E0,2.0662348E0,8.908209E0,1.4948105E1,0E0,1.2994175E0,5.767981E1,1.0036249E2,0E0,0E0,1.1735711E0,1.1661062E0,3.9087067E0,2.2454185E0,0E0,0E0,9.65099E0,1.2943115E0,8.3354025E0,9.703491E0,1.2684646E0,0E0,0E0,0E0,2.9065475E0,2.2675915E0,0E0,0E0,0E0,0E0,0E0,0E0,7.556389E0,6.372163E0,4.9903727E0,4.0791016E0,0E0,0E0,4.2272043E0,0E0,0E0,0E0,5.700677E-1,0E0,2.5001335E-1,7.7257895E0,9.318508E-1,0E0,3.401062E0,3.6345207E1,0E0,0E0,0E0,0E0,0E0,0E0,0E0,0E0,0E0,0E0,0E0,0E0,0E0,0E0],"parents":[2147483647,0,0,1,1,2,2,3,3,5,5,6,6,7,7,8,8,10,10,11,11,12,12,14,14,15,15,16,16,19,19,20,20,21,21,22,22,25,25,26,26,27,27,28,28,29,29,33,33,34,34,41,41,42,42,43,43,44,44,47,47,51,51,53,53,54,54,55,55,57,57,58,58],"right_children":[2,4,6,8,-1,10,12,14,16,-1,18,20,22,-1,24,26,28,-1,-1,30,32,34,36,-1,-1,38,40,42,44,46,-1,-1,-1,48,50,-1,-1,-1,-1,-1,-1,52,54,56,58,-1,-1,60,-1,-1,-1,62,-1,64,66,68,-1,70,72,-1,-1,-1,-1,-1,-1,-1,-1,-1,-1,-1,-1,-1,-1],"split_conditions":[1E0,1E0,4.8E1,2E0,1.24863185E-1,3.7E1,2E0,1E0,1.5E1,1.2500976E-1,1.1E1,6.5E1,7E0,1.2420031E-1,1.4E1,1E0,9E0,-4.96967E-2,7.510013E-2,2E0,2E0,5E0,1.64E2,-3.4155484E-2,-1.4992456E-1,2E0,2E0,5E0,1.6E1,9.9E1,-1.621164E-2,-1.748916E-2,-1.2691821E-1,1.5E1,2.28E2,9.8959185E-2,-3.878282E-2,1.1716681E-1,-1.1208149E-1,-1.627518E-1,-4.677928E-2,1.5E1,2E0,5E0,9E0,9.4597846E-2,-1.0417068E-2,7.2E1,-1.630404E-1,5.632787E-2,-8.1567585E-2,4E0,-1.377093E-1,1.3E1,1.9E1,1.5E1,-1.1079575E-1,1.3E1,4.2E1,-1.3235547E-1,4.5264028E-2,5.7445616E-3,8.3231136E-2,3.7215497E-2,1.0320293E-1,7.408135E-2,-6.1646666E-2,9.7022764E-2,3.6219537E-4,-1.11360684E-1,-1.5964785E-1,9.869005E-2,-1.5432127E-1],"split_indices":[12,17,1,4,0,1,5,5,0,0,4,4,5,0,0,5,4,0,0,14,12,14,1,0,0,10,16,3,2,1,0,0,0,3,1,0,0,0,0,0,0,1,5,10,16,0,0,1,0,0,0,3,0,1,1,2,0,3,4,0,0,0,0,0,0,0,0,0,0,0,0,0,0],"split_type":[0,0,0,0,0,0,0,0,0,0,0,0,0,0,0,0,0,0,0,0,0,0,0,0,0,0,0,0,0,0,0,0,0,0,0,0,0,0,0,0,0,0,0,0,0,0,0,0,0,0,0,0,0,0,0,0,0,0,0,0,0,0,0,0,0,0,0,0,0,0,0,0,0],"sum_hessian":[2.957383E3,1.5360405E3,1.4213425E3,1.3577063E3,1.7833412E2,1.3612101E3,6.0132477E1,1.0799682E2,1.2497095E3,1.3573569E3,3.8530633E0,1.4006217E1,4.6126263E1,9.4793755E1,1.3203067E1,7.7123584E2,4.784737E2,1.2456915E0,2.6073718E0,9.856312E0,4.1499047E0,4.2602604E1,3.523658E0,1.8077589E0,1.13953085E1,9.744489E0,7.6149133E2,3.5562656E1,4.4291104E2,8.79558E0,1.0607324E0,1.9219056E0,2.2279992E0,3.967586E1,2.9267433E0,2.3663318E0,1.157326E0,8.298446E0,1.4460436E0,7.595565E2,1.9347924E0,7.560173E0,2.8002481E1,5.146495E0,4.3776456E2,7.6843534E0,1.1112261E0,3.6267712E0,3.6049088E1,1.2071618E0,1.7195815E0,3.1249032E0,4.43527E0,1.3146524E1,1.4855957E1,3.2043486E0,1.9421461E0,3.9671826E2,4.1046284E1,1.744147E0,1.8826244E0,2.0426285E0,1.0822747E0,2.2122462E0,1.09342785E1,6.846046E0,8.009912E0,1.5568119E0,1.6475366E0,2.5919344E1,3.7079892E2,6.0299087E0,3.5016373E1],"tree_param":{"num_deleted":"0","num_feature":"18","num_nodes":"73","size_leaf_vector":"1"}},{"base_weights":[3.3571113E-2,-9.574362E-1,1.1232235E0,-1.2389922E0,1.2187206E-1,1.217957E0,-8.500176E-1,8.923628E-1,-1.4226953E0,1.2197565E0,4.3735793E-1,3.281417E-1,-1.2776934E0,1.2119621E-1,-1.296608E0,-1.2634386E0,-1.5196812E0,1.22199945E-1,8.267658E-1,-2.2505125E-2,6.948372E-2,8.939214E-1,-8.110057E-1,-1.3923019E0,6.9330834E-2,-3.30099E-1,-1.4717212E-1,-8.0489373E-1,-1.3574777E0,-8.072704E-1,-1.5243065E0,1.025659E-2,1.0670505E-1,1.0117017E0,-1.6874904E-2,7.766171E-2,-1.4043447E-1,-1.4869249E0,-4.3272156E-2,-6.442448E-2,9.797598E-3,8.9465857E-1,-1.0804074E0,-1.4002011E0,-2.1251658E-1,-1.283896E-1,7.086525E-2,-1.5263975E-1,-4.0275995E-2,8.717704E-3,1.140635E-1,-6.1941385E-1,-1.5379435E-1,9.198774E-2,-7.9609804E-2,1.0246975E0,3.3711517E-1,9.1261305E-2,-1.2214255E0,-1.533572E-1,-1.208636E0,4.911807E-1,-1.3095503E-1,-1.1783172E-1,2.1005316E-2,2.6724035E-2,1.09654985E-1,-8.2221E-3,7.3241726E-2,-6.5531775E-2,-1.3851298E-1,-5.0287712E-2,-1.5697698E-1,9.62804E-2,2.1529062E-2],"categories":[],"categories_nodes":[],"categories_segments":[],"categories_sizes":[],"default_left":[0,0,0,0,0,0,0,0,0,0,0,0,0,0,0,0,0,0,0,0,0,0,0,0,0,0,0,0,0,0,0,0,0,0,0,0,0,0,0,0,0,0,0,0,0,0,0,0,0,0,0,0,0,0,0,0,0,0,0,0,0,0,0,0,0,0,0,0,0,0,0,0,0,0,0],"id":6,"left_children":[1,3,5,7,-1,9,11,13,15,17,19,21,23,-1,25,27,29,-1,31,-1,-1,33,35,37,-1,39,-1,41,43,45,47,-1,-1,49,-1,-1,-1,51,53,-1,-1,55,57,59,61,-1,-1,-1,-1,-1,-1,63,-1,-1,-1,65,67,-1,69,-1,71,73,-1,-1,-1,-1,-1,-1,-1,-1,-1,-1,-1,-1,-1],"loss_changes":[3.032443E3,9.0261475E2,2.5105994E2,5.1132422E2,0E0,1.2598877E0,3.1588821E1,7.431912E1,1.6610596E1,1.1206055E-1,9.2307836E-1,1.1856033E1,1.126371E1,0E0,1.838171E0,1.8743652E1,1.2102051E0,0E0,1.6858544E0,0E0,0E0,1.6745539E0,6.9833884E0,5.4777756E0,0E0,5.197239E-1,0E0,3.8774048E1,1.8304016E1,5.8980227E0,1.1083984E0,0E0,0E0,1.2069225E0,0E0,0E0,0E0,8.4169006E-1,3.542514E0,0E0,0E0,5.108261E-1,2.076918E1,7.5080566E0,1.21133375E1,0E0,0E0,0E0,0E0,0E0,0E0,2.0676441E0,0E0,0E0,0E0,2.0148182E-1,6.775098E-1,0E0,5.1845474E0,0E0,3.874533E1,1.0651224E0,0E0,0E0,0E0,0E0,0E0,0E0,0E0,0E0,0E0,0E0,0E0,0E0,0E0],"parents":[2147483647,0,0,1,1,2,2,3,3,5,5,6,6,7,7,8,8,9,9,10,10,11,11,12,12,14,14,15,15,16,16,18,18,21,21,22,22,23,23,25,25,27,27,28,28,29,29,30,30,33,33,37,37,38,38,41,41,42,42,43,43,44,44,51,51,55,55,56,56,58,58,60,60,61,61],"right_children":[2,4,6,8,-1,10,12,14,16,18,20,22,24,-1,26,28,30,-1,32,-1,-1,34,36,38,-1,40,-1,42,44,46,48,-1,-1,50,-1,-1,-1,52,54,-1,-1,56,58,60,62,-1,-1,-1,-1,-1,-1,64,-1,-1,-1,66,68,-1,70,-1,72,74,-1,-1,-1,-1,-1,-1,-1,-1,-1,-1,-1,-1,-1],"split_conditions":[1E0,1E0,4.8E1,2E0,1.2187206E-1,3.7E1,2E0,1E0,2E0,1E0,3.9E1,6.5E1,9E0,1.2119621E-1,1.4E1,1E0,1.2E1,1.22199945E-1,2E0,-2.2505125E-2,6.948372E-2,2E0,1.4E1,5E0,6.9330834E-2,8E0,-1.4717212E-1,1.2E1,3E0,5E0,1.7E1,1.025659E-2,1.0670505E-1,3E0,-1.6874904E-2,7.766171E-2,-1.4043447E-1,1.5E1,9.9E1,-6.442448E-2,9.797598E-3,8E0,1.5E1,1.3E1,3.4E1,-1.283896E-1,7.086525E-2,-1.5263975E-1,-4.0275995E-2,8.717704E-3,1.140635E-1,6.5E1,-1.5379435E-1,9.198774E-2,-7.9609804E-2,8E0,1.6E1,9.1261305E-2,2.5E1,-1.533572E-1,1E0,1.3E1,-1.3095503E-1,-1.1783172E-1,2.1005316E-2,2.6724035E-2,1.09654985E-1,-8.2221E-3,7.3241726E-2,-6.5531775E-2,-1.3851298E-1,-5.0287712E-2,-1.5697698E-1,9.62804E-2,2.1529062E-2],"split_indices":[12,17,1,4,0,1,5,5,8,16,1,4,5,0,0,5,2,0,14,0,0,14,0,14,0,1,0,4,14,3,16,0,0,11,0,0,0,3,1,0,0,4,0,1,1,0,0,0,0,0,0,1,0,0,0,1,0,0,3,0,14,2,0,0,0,0,0,0,0,0,0,0,0,0,0],"split_type":[0,0,0,0,0,0,0,0,0,0,0,0,0,0,0,0,0,0,0,0,0,0,0,0,0,0,0,0,0,0,0,0,0,0,0,0,0,0,0,0,0,0,0,0,0,0,0,0,0,0,0,0,0,0,0,0,0,0,0,0,0,0,0,0,0,0,0,0,0,0,0,0,0,0,0],"sum_hessian":[2.8062031E3,1.4696869E3,1.3365164E3,1.3017006E3,1.679863E2,1.275656E3,6.0860302E1,1.0298563E2,1.198715E3,1.2721606E3,3.4953065E0,1.627067E1,4.4589634E1,9.025442E1,1.2731209E1,4.590137E2,7.3970123E2,1.2628438E3,9.316963E0,1.013598E0,2.4817085E0,1.1015085E1,5.2555847E0,4.2416813E1,2.1728182E0,2.3953774E0,1.0335832E1,7.974206E1,3.7927167E2,5.9038E0,7.337974E2,2.676636E0,6.6403275E0,9.959224E0,1.055861E0,1.3457665E0,3.9098184E0,3.9541122E1,2.8756914E0,1.0902839E0,1.3050935E0,1.081021E1,6.893185E1,3.654136E2,1.3858051E1,4.6080346E0,1.2957654E0,7.320716E2,1.7258298E0,1.4240582E0,8.535166E0,2.9261577E0,3.6614967E1,1.1642611E0,1.7114304E0,8.086314E0,2.7238963E0,4.1934776E0,6.4738365E1,2.1129854E2,1.5411507E2,8.778992E0,5.0790596E0,1.4969357E0,1.429222E0,1.1094929E0,6.976821E0,1.706086E0,1.0178103E0,1.5643719E1,4.909465E1,5.297644E1,1.0113862E2,2.3211927E0,6.457799E0],"tree_param":{"num_deleted":"0","num_feature":"18","num_nodes":"75","size_leaf_vector":"1"}},{"base_weights":[3.624487E-2,8.221326E-1,-1.3588282E0,3.2438466E-4,1.1644381E0,-1.4048365E0,-5.0678307E-1,-1.2587602E0,5.8135915E-1,1.1884443E0,-9.342025E-1,-1.408842E0,8.820151E-2,1.1519269E-1,-9.4812316E-1,1.10463776E-1,-1.4551636E0,8.767458E-1,-7.568608E-1,1.19445495E-1,7.0674974E-1,7.8600615E-2,-1.4500757E-1,-1.4236654E0,-1.0529499E0,-1.1111171E0,6.668156E-1,-4.9723033E-2,-1.4622384E-1,5.177372E-1,1.1904053E-1,1.10931925E-1,-9.5396763E-1,9.666665E-1,-6.232086E-1,-1.3285588E0,-1.4655705E-1,6.3024443E-1,-1.3909379E0,-1.2112226E0,5.4143924E-2,9.22558E-2,-3.866922E-3,1.1875998E-1,-6.5089005E-1,-3.3639687E-1,-1.2677864E0,1.0668986E-1,1.3064715E-2,-1.03273325E-1,5.5023623E-3,-1.3343658E0,1.3793162E-3,1.342991E-1,-1.084981E-1,-1.4442563E-1,3.3289832E-3,-1.4422925E-1,-7.59928E-1,-1.0136437E0,2.615612E-1,4.7616303E-1,-1.096664E0,-7.532838E-1,-1.3676803E-1,-1.4775642E0,-1.2266309E0,7.4878013E-1,-1.3062374E-1,-1.0890861E-1,6.889339E-2,4.8243638E-2,-9.2164055E-2,1.07944585E-1,1.8909073E-2,-1.4036033E-1,-7.2092116E-2,-1.06888965E-1,-3.471331E-3,-1.4913456E-1,-3.6031794E-2,-9.825928E-3,-1.3668221E-1,-1.3321913E-2,1.116483E-1],"categories":[],"categories_nodes":[],"categories_segments":[],"categories_sizes":[],"default_left":[0,0,0,0,0,0,0,0,0,0,0,0,0,0,0,0,0,0,0,0,0,0,0,0,0,0,0,0,0,0,0,0,0,0,0,0,0,0,0,0,0,0,0,0,0,0,0,0,0,0,0,0,0,0,0,0,0,0,0,0,0,0,0,0,0,0,0,0,0,0,0,0,0,0,0,0,0,0,0,0,0,0,0,0,0],"id":7,"left_children":[1,3,5,7,9,11,13,15,17,19,21,23,-1,-1,25,-1,27,29,31,-1,33,-1,-1,35,37,39,41,-1,-1,43,-1,-1,45,47,49,51,-1,53,55,57,-1,-1,-1,-1,59,61,63,-1,-1,-1,-1,65,-1,-1,-1,-1,-1,-1,67,69,71,73,75,77,-1,79,81,83,-1,-1,-1,-1,-1,-1,-1,-1,-1,-1,-1,-1,-1,-1,-1,-1,-1],"loss_changes":[2.867323E3,4.705923E2,3.6231323E1,3.6132578E2,6.060742E1,9.42749E0,3.7581234E1,7.399832E1,1.3425197E2,2.5375977E0,1.3488973E1,3.2087402E0,0E0,0E0,1.1248344E1,0E0,2.517395E-1,3.060994E1,2.3733215E1,0E0,6.4253025E0,0E0,0E0,1.4558105E0,2.336137E1,6.716091E0,8.0869067E-1,0E0,0E0,1.03380554E2,0E0,0E0,1.0483368E1,1.0742226E0,9.90584E-1,2.1375732E0,0E0,1.0378303E1,2.5711594E0,2.538147E0,0E0,0E0,0E0,0E0,1.628646E1,1.3080235E1,8.695717E-1,0E0,0E0,0E0,0E0,2.363556E0,0E0,0E0,0E0,0E0,0E0,0E0,1.2447119E1,5.2253036E0,4.2508116E0,1.6183999E0,2.342329E-1,1.8307137E0,0E0,1.1768036E0,2.5232697E1,1.5545774E0,0E0,0E0,0E0,0E0,0E0,0E0,0E0,0E0,0E0,0E0,0E0,0E0,0E0,0E0,0E0,0E0,0E0],"parents":[2147483647,0,0,1,1,2,2,3,3,4,4,5,5,6,6,7,7,8,8,9,9,10,10,11,11,14,14,16,16,17,17,18,18,20,20,23,23,24,24,25,25,26,26,29,29,32,32,33,33,34,34,35,35,37,37,38,38,39,39,44,44,45,45,46,46,51,51,58,58,59,59,60,60,61,61,62,62,63,63,65,65,66,66,67,67],"right_children":[2,4,6,8,10,12,14,16,18,20,22,24,-1,-1,26,-1,28,30,32,-1,34,-1,-1,36,38,40,42,-1,-1,44,-1,-1,46,48,50,52,-1,54,56,58,-1,-1,-1,-1,60,62,64,-1,-1,-1,-1,66,-1,-1,-1,-1,-1,-1,68,70,72,74,76,78,-1,80,82,84,-1,-1,-1,-1,-1,-1,-1,-1,-1,-1,-1,-1,-1,-1,-1,-1,-1],"split_conditions":[2E0,1E0,1E0,1.3E1,8E1,9E0,3.6E1,1E0,2.6E1,3.1E1,1E0,9E0,8.820151E-2,1.1519269E-1,8E0,1.10463776E-1,2E0,1E0,1E0,1.19445495E-1,1E0,7.8600615E-2,-1.4500757E-1,2E0,4.4E1,1E0,1.23E2,-4.9723033E-2,-1.4622384E-1,1E0,1.1904053E-1,1.10931925E-1,2E0,1.7E1,5.1E1,1E0,-1.4655705E-1,1E1,1.4E1,3E0,5.4143924E-2,9.22558E-2,-3.866922E-3,1.1875998E-1,6E0,1.6E1,3.2E1,1.0668986E-1,1.3064715E-2,-1.03273325E-1,5.5023623E-3,1.5E1,1.3793162E-3,1.342991E-1,-1.084981E-1,-1.4442563E-1,3.3289832E-3,-1.4422925E-1,1.23E2,2E0,1.4E1,1E0,3.8E1,1.5E1,-1.3676803E-1,4E0,1.1E1,2E0,-1.3062374E-1,-1.0890861E-1,6.889339E-2,4.8243638E-2,-9.2164055E-2,1.07944585E-1,1.8909073E-2,-1.4036033E-1,-7.2092116E-2,-1.06888965E-1,-3.471331E-3,-1.4913456E-1,-3.6031794E-2,-9.825928E-3,-1.3668221E-1,-1.3321913E-2,1.116483E-1],"split_indices":[7,12,12,0,1,7,1,7,1,1,13,16,0,0,6,0,3,17,7,0,13,0,0,8,3,17,1,0,0,7,0,0,8,0,1,15,0,16,16,8,0,0,0,0,3,0,1,0,0,0,0,0,0,0,0,0,0,0,1,16,3,6,1,0,0,6,3,12,0,0,0,0,0,0,0,0,0,0,0,0,0,0,0,0,0],"split_type":[0,0,0,0,0,0,0,0,0,0,0,0,0,0,0,0,0,0,0,0,0,0,0,0,0,0,0,0,0,0,0,0,0,0,0,0,0,0,0,0,0,0,0,0,0,0,0,0,0,0,0,0,0,0,0,0,0,0,0,0,0,0,0,0,0,0,0,0,0,0,0,0,0,0,0,0,0,0,0,0,0,0,0,0,0],"sum_hessian":[2.6132668E3,1.6718646E3,9.414023E2,4.91903E2,1.1799615E3,8.9255756E2,4.88447E1,1.5495464E2,3.3694836E2,1.1670455E3,1.2916014E1,8.9138025E2,1.1773095E0,9.926686E0,3.8918015E1,1.1534249E1,1.434204E2,2.763043E2,6.064408E1,1.1512008E3,1.584475E1,2.8589704E0,1.0057043E1,8.5285706E2,3.85232E1,3.5633533E1,3.284478E0,1.5740526E0,1.4184633E2,1.3007433E2,1.4622995E2,5.351243E0,5.529284E1,1.3482915E1,2.3618362E0,2.7084888E2,5.820082E2,6.297365E0,3.2225834E1,3.3850086E1,1.7834474E0,2.1847863E0,1.0996917E0,8.26708E1,4.7403526E1,1.932827E1,3.596457E1,1.1792877E1,1.690038E0,1.1467383E0,1.2150979E0,2.696881E2,1.1607413E0,4.6020446E0,1.6953206E0,3.1049387E1,1.176449E0,2.0935097E1,1.2914989E1,3.383943E1,1.3564093E1,9.523458E0,9.804812E0,7.2360744E0,2.8728495E1,1.1032813E2,1.5935999E2,3.3348186E0,9.580172E0,3.274865E1,1.0907811E0,1.192942E1,1.6346726E0,2.180644E0,7.342813E0,3.8908699E0,5.913943E0,4.689056E0,2.5470185E0,1.08653046E2,1.6750857E0,1.7799133E1,1.4156085E2,1.1688433E0,2.1659753E0],"tree_param":{"num_deleted":"0","num_feature":"18","num_nodes":"85","size_leaf_vector":"1"}},{"base_weights":[2.697744E-2,-8.743071E-1,1.0687051E0,-1.313206E-1,-1.2815075E0,1.1687131E0,-8.1452835E-1,-1.205411E0,1.1036757E0,-9.145585E-1,-1.3245249E0,1.17234044E-1,1.8606511E-1,1.8144499E-1,-1.1398239E0,-1.3126067E0,1.0372266E0,1.1273851E0,-6.21463E-1,-1.5558949E-1,-1.3094802E-1,-1.2226859E0,-1.3707073E0,-8.183389E-2,7.2443314E-2,7.0822644E-1,-7.531149E-1,-1.2508867E0,5.1329046E-1,-1.5021816E-1,-1.3536788E0,2.7721518E-1,1.3603593E-1,1.1417258E-1,-4.3565135E-2,5.25354E-3,-9.727358E-2,-8.5573363E-1,8.8558006E-1,-9.0878403E-1,-1.3203768E0,-1.3723165E-1,-3.2707706E-2,9.206054E-1,-2.8609691E-2,4.2361148E-2,-1.2386789E-1,-1.3208414E0,-2.836093E-1,8.051047E-2,-9.950369E-3,9.637806E-2,-1.2029854E-1,-1.3791895E0,-3.2312745E-1,8.8656135E-2,-4.3190118E-2,-5.32672E-1,-1.317815E-1,1.0340989E-1,-1.1379703E-2,1.2249284E-1,-1.1997072E0,-1.1294985E0,-1.386096E0,1.07985735E-1,-7.7985013E-3,-4.5101047E-1,-1.372237E-1,4.604758E-2,-7.487398E-2,-1.3823669E0,-3.8591426E-2,-9.197166E-2,2.7396092E-1,-1.050872E0,1.0928269E-1,-1.2463396E0,-3.5297647E-3,-1.1991304E-1,-3.8584214E-1,-1.3962545E-1,-5.76807E-1,5.0968766E-2,-1.1030986E-1,-4.013388E-2,-1.3855366E-1,5.5319723E-2,-1.0177288E-2,-1.1623055E-1,-6.9453837E-3,-1.3896525E-1,-9.5164716E-2,2.7868334E-2,-1.0093834E-1,-4.7857314E-3,-8.108213E-2],"categories":[],"categories_nodes":[],"categories_segments":[],"categories_sizes":[],"default_left":[0,0,0,0,0,0,0,0,0,0,0,0,0,0,0,0,0,0,0,0,0,0,0,0,0,0,0,0,0,0,0,0,0,0,0,0,0,0,0,0,0,0,0,0,0,0,0,0,0,0,0,0,0,0,0,0,0,0,0,0,0,0,0,0,0,0,0,0,0,0,0,0,0,0,0,0,0,0,0,0,0,0,0,0,0,0,0,0,0,0,0,0,0,0,0,0,0],"id":8,"left_children":[1,3,5,7,9,11,13,15,17,19,21,-1,23,25,27,29,31,33,35,37,-1,39,41,-1,-1,43,45,47,49,51,53,55,-1,-1,-1,-1,-1,57,59,61,63,-1,-1,65,-1,-1,-1,67,69,-1,-1,-1,-1,71,73,-1,-1,75,-1,-1,-1,-1,77,79,81,-1,-1,83,-1,-1,-1,85,-1,-1,87,89,-1,91,-1,-1,93,-1,95,-1,-1,-1,-1,-1,-1,-1,-1,-1,-1,-1,-1,-1,-1],"loss_changes":[2.31646E3,4.000362E2,2.1649304E2,6.2401917E2,1.2274902E1,3.6566162E0,1.9094917E1,6.1833252E1,9.653168E0,2.7635277E1,1.9102783E0,0E0,3.39754E0,8.024295E0,8.735725E0,1.1279114E1,2.5781794E0,5.3449707E0,9.0627265E-1,2.475765E1,0E0,6.3792114E0,4.1815186E-1,0E0,0E0,2.4271193E0,3.9356258E0,2.4402237E0,7.031778E-1,1.21050825E1,5.6582947E0,2.4768205E0,0E0,0E0,0E0,0E0,0E0,2.312604E0,2.155428E0,3.9875263E1,7.7127075E-1,0E0,0E0,1.4645715E0,0E0,0E0,0E0,1.1031647E0,1.7565113E0,0E0,0E0,0E0,0E0,1.8066406E-1,2.7150512E0,0E0,0E0,1.2573166E1,0E0,0E0,0E0,0E0,2.9398575E0,2.287651E0,2.9769897E-1,0E0,0E0,2.8416843E0,0E0,0E0,0E0,1.4401245E-1,0E0,0E0,4.997209E-1,1.0997744E0,0E0,9.0774536E-1,0E0,0E0,2.7765102E0,0E0,3.779962E-1,0E0,0E0,0E0,0E0,0E0,0E0,0E0,0E0,0E0,0E0,0E0,0E0,0E0,0E0],"parents":[2147483647,0,0,1,1,2,2,3,3,4,4,5,5,6,6,7,7,8,8,9,9,10,10,12,12,13,13,14,14,15,15,16,16,17,17,18,18,19,19,21,21,22,22,25,25,26,26,27,27,28,28,29,29,30,30,31,31,37,37,38,38,39,39,40,40,43,43,47,47,48,48,53,53,54,54,57,57,62,62,63,63,64,64,67,67,71,71,74,74,75,75,77,77,80,80,82,82],"right_children":[2,4,6,8,10,12,14,16,18,20,22,-1,24,26,28,30,32,34,36,38,-1,40,42,-1,-1,44,46,48,50,52,54,56,-1,-1,-1,-1,-1,58,60,62,64,-1,-1,66,-1,-1,-1,68,70,-1,-1,-1,-1,72,74,-1,-1,76,-1,-1,-1,-1,78,80,82,-1,-1,84,-1,-1,-1,86,-1,-1,88,90,-1,92,-1,-1,94,-1,96,-1,-1,-1,-1,-1,-1,-1,-1,-1,-1,-1,-1,-1,-1],"split_conditions":[1E0,2.1E1,4.5E1,1E0,2.7E1,3.7E1,2E0,1.6E1,2E0,2E0,2E0,1.17234044E-1,1E1,6.1E1,8E0,1E0,1.7E1,2E0,1.7E1,1E0,-1.3094802E-1,3E0,9E0,-8.183389E-2,7.2443314E-2,1E0,1.4E1,5E0,4E1,1E0,1.5E1,1.5E1,1.3603593E-1,1.1417258E-1,-4.3565135E-2,5.25354E-3,-9.727358E-2,1.1E1,2E0,1E0,4.2E1,-1.3723165E-1,-3.2707706E-2,1E0,-2.8609691E-2,4.2361148E-2,-1.2386789E-1,1.5E1,9.9E1,8.051047E-2,-9.950369E-3,9.637806E-2,-1.2029854E-1,1E1,1.4E1,8.8656135E-2,-4.3190118E-2,1.5E1,-1.317815E-1,1.0340989E-1,-1.1379703E-2,1.2249284E-1,2E0,4E1,5.3E1,1.07985735E-1,-7.7985013E-3,1E0,-1.372237E-1,4.604758E-2,-7.487398E-2,1.2E1,-3.8591426E-2,-9.197166E-2,1.8E1,1.4E1,1.0928269E-1,1.4E1,-3.5297647E-3,-1.1991304E-1,1E1,-1.3962545E-1,2.33E2,5.0968766E-2,-1.1030986E-1,-4.013388E-2,-1.3855366E-1,5.5319723E-2,-1.0177288E-2,-1.1623055E-1,-6.9453837E-3,-1.3896525E-1,-9.5164716E-2,2.7868334E-2,-1.0093834E-1,-4.7857314E-3,-8.108213E-2],"split_indices":[12,2,1,14,1,1,5,0,5,5,5,0,3,3,5,5,0,10,0,14,0,10,5,0,0,13,0,14,3,10,0,1,0,0,0,0,0,3,14,5,4,0,0,10,0,0,0,3,1,0,0,0,0,3,1,0,0,0,0,0,0,0,14,3,10,0,0,13,0,0,0,0,0,0,1,0,0,0,0,0,10,0,3,0,0,0,0,0,0,0,0,0,0,0,0,0,0],"split_type":[0,0,0,0,0,0,0,0,0,0,0,0,0,0,0,0,0,0,0,0,0,0,0,0,0,0,0,0,0,0,0,0,0,0,0,0,0,0,0,0,0,0,0,0,0,0,0,0,0,0,0,0,0,0,0,0,0,0,0,0,0,0,0,0,0,0,0,0,0,0,0,0,0,0,0,0,0,0,0,0,0,0,0,0,0,0,0,0,0,0,0,0,0,0,0,0,0],"sum_hessian":[2.4652295E3,1.3217958E3,1.1434338E3,4.6842322E2,8.533725E2,1.0861346E3,5.729918E1,2.505452E2,2.1787804E2,9.1879295E1,7.614932E2,1.0819479E3,4.1868067E0,1.4215895E1,4.3083282E1,2.3951149E2,1.1033697E1,2.1526604E2,2.6120095E0,3.1922987E1,5.995631E1,2.4615695E2,5.1533624E2,1.2795618E0,2.9072452E0,9.246257E0,4.969637E0,4.0599E1,2.4842846E0,8.333085E0,2.311784E2,3.8459308E0,7.187766E0,2.1357605E2,1.6899862E0,1.1862864E0,1.4257231E0,1.9193945E1,1.2729043E1,6.087024E1,1.8528671E2,5.1422845E2,1.1078277E0,7.6800113E0,1.566246E0,1.4889274E0,3.4807096E0,3.751998E1,3.0790184E0,1.4702988E0,1.0139859E0,4.0898676E0,4.2432175E0,2.2526384E2,5.9145756E0,1.9338944E0,1.9120363E0,1.256321E1,6.630735E0,1.1051867E1,1.6771762E0,6.9183807E0,5.395186E1,5.211322E1,1.331735E2,6.553499E0,1.1265117E0,2.638619E0,3.488136E1,1.1882083E0,1.8908099E0,2.2415504E2,1.1087842E0,2.6882439E0,3.2263315E0,9.794337E0,2.7688723E0,5.1806732E1,2.145126E0,4.7091362E1,5.0218587E0,1.3080627E2,2.3672168E0,1.1551516E0,1.4834675E0,1.1329108E0,2.2302214E2,1.5798864E0,1.6464452E0,8.630131E0,1.1642063E0,3.235598E1,1.9450752E1,2.6987686E0,2.32309E0,1.0955092E0,1.2717077E0],"tree_param":{"num_deleted":"0","num_feature":"18","num_nodes":"97","size_leaf_vector":"1"}},{"base_weights":[3.402089E-2,-8.3060306E-1,1.0517546E0,-1.07131794E-1,-1.2230936E0,1.1359202E0,-8.999441E-1,-1.1336173E0,1.0792537E0,-1.0471666E0,-1.3352944E-1,1.1511143E-1,3.6717582E-1,-1.1395366E0,5.110313E-1,-1.2492906E0,8.610993E-1,1.1063471E0,-6.3651E-1,-6.2911713E-1,-1.2467124E0,8.909294E-1,-8.2281643E-1,-4.601459E-1,-1.2919413E0,1.1299702E-1,-5.657131E-1,-1.7383625E-1,-1.2960697E0,1.0811899E-1,1.2995985E-1,1.1214279E0,-1.9440679E-2,-7.87518E-3,-9.284957E-2,-8.378461E-1,1.0778301E-1,-1.2826375E0,-8.5626644E-1,1.04045294E-1,-3.531077E-2,-1.2672995E-1,7.107891E-2,5.6285113E-1,-1.2591054E-1,-7.5019137E-3,-1.3360204E-1,-9.084388E-2,5.1471824E-3,9.677342E-2,-1.2078911E-1,-1.31932E0,-4.4048387E-1,7.436681E-2,-6.073915E-2,1.12546936E-1,1.7820122E-2,9.994787E-2,-9.481363E-1,-1.289378E0,-4.0176716E-2,9.2337626E-1,-1.3070577E-1,9.462377E-2,-2.453662E-2,-3.3481322E-2,-1.3263041E-1,-8.517536E-2,-1.2525588E-1,-1.0631834E0,-3.525534E-1,-1.2928896E-1,-3.27675E-2,1.1991054E-1,4.9519134E-3,3.751727E-2,-8.355063E-2,-6.268529E-2,-1.2386014E-1,-9.826224E-2,7.4516006E-2],"categories":[],"categories_nodes":[],"categories_segments":[],"categories_sizes":[],"default_left":[0,0,0,0,0,0,0,0,0,0,0,0,0,0,0,0,0,0,0,0,0,0,0,0,0,0,0,0,0,0,0,0,0,0,0,0,0,0,0,0,0,0,0,0,0,0,0,0,0,0,0,0,0,0,0,0,0,0,0,0,0,0,0,0,0,0,0,0,0,0,0,0,0,0,0,0,0,0,0,0,0],"id":9,"left_children":[1,3,5,7,9,11,13,15,17,19,-1,-1,21,23,25,27,29,31,33,35,37,39,41,43,45,-1,47,49,51,53,-1,55,-1,-1,-1,57,-1,59,61,-1,-1,-1,-1,63,-1,-1,-1,-1,-1,-1,-1,65,67,-1,-1,-1,-1,-1,69,71,-1,73,-1,-1,-1,-1,-1,-1,75,77,79,-1,-1,-1,-1,-1,-1,-1,-1,-1,-1],"loss_changes":[2.0131614E3,3.5111182E2,1.7363904E2,5.3236255E2,1.4428955E1,1.1349365E1,1.5457317E1,5.514102E1,1.0132736E1,2.5649323E1,0E0,0E0,1.3822955E1,3.3322258E0,5.3559527E0,1.0937317E1,4.2955427E0,4.142044E0,5.437504E-1,3.809999E1,1.8960266E0,3.169423E0,5.6305227E0,7.6574173E0,1.5316238E0,0E0,7.341573E-1,1.3450085E1,3.6455994E0,3.196198E0,0E0,5.53833E-1,0E0,0E0,0E0,1.991227E1,0E0,6.307373E-1,1.8050072E1,0E0,0E0,0E0,0E0,1.6015127E0,0E0,0E0,0E0,0E0,0E0,0E0,0E0,9.74823E-1,8.1669664E-1,0E0,0E0,0E0,0E0,0E0,5.7098618E0,2.2323608E-1,0E0,1.1042285E0,0E0,0E0,0E0,0E0,0E0,0E0,2.1632693E0,4.8821335E0,1.1710269E1,0E0,0E0,0E0,0E0,0E0,0E0,0E0,0E0,0E0,0E0],"parents":[2147483647,0,0,1,1,2,2,3,3,4,4,5,5,6,6,7,7,8,8,9,9,12,12,13,13,14,14,15,15,16,16,17,17,18,18,19,19,20,20,21,21,22,22,23,23,24,24,26,26,27,27,28,28,29,29,31,31,35,35,37,37,38,38,43,43,51,51,52,52,58,58,59,59,61,61,68,68,69,69,70,70],"right_children":[2,4,6,8,10,12,14,16,18,20,-1,-1,22,24,26,28,30,32,34,36,38,40,42,44,46,-1,48,50,52,54,-1,56,-1,-1,-1,58,-1,60,62,-1,-1,-1,-1,64,-1,-1,-1,-1,-1,-1,-1,66,68,-1,-1,-1,-1,-1,70,72,-1,74,-1,-1,-1,-1,-1,-1,76,78,80,-1,-1,-1,-1,-1,-1,-1,-1,-1,-1],"split_conditions":[1E0,2.1E1,8E1,1E0,3E0,3.2E1,1E1,1.6E1,2E0,1.5E1,-1.3352944E-1,1.1511143E-1,1E0,9.9E1,2E0,1E0,1.7E1,1E1,1.7E1,2E0,9E0,1.7E1,3E0,1E0,1.8E1,1.1299702E-1,6E0,1E0,1.5E1,1.5E1,1.2995985E-1,9E0,-1.9440679E-2,-7.87518E-3,-9.284957E-2,1E0,1.0778301E-1,1.025E3,4.8E1,1.04045294E-1,-3.531077E-2,-1.2672995E-1,7.107891E-2,1.5E1,-1.2591054E-1,-7.5019137E-3,-1.3360204E-1,-9.084388E-2,5.1471824E-3,9.677342E-2,-1.2078911E-1,1.2E1,1.3E1,7.436681E-2,-6.073915E-2,1.12546936E-1,1.7820122E-2,9.994787E-2,1E0,3.3E1,-4.0176716E-2,4.3E1,-1.3070577E-1,9.462377E-2,-2.453662E-2,-3.3481322E-2,-1.3263041E-1,-8.517536E-2,1.9E1,2E0,1.5E1,-1.2928896E-1,-3.27675E-2,1.1991054E-1,4.9519134E-3,3.751727E-2,-8.355063E-2,-6.268529E-2,-1.2386014E-1,-9.826224E-2,7.4516006E-2],"split_indices":[12,1,1,14,8,1,8,0,5,4,0,0,13,1,13,5,0,3,0,16,16,0,8,13,3,0,11,10,0,1,0,16,0,0,0,5,0,14,1,0,0,0,0,0,0,0,0,0,0,0,0,0,1,0,0,0,0,0,10,10,0,1,0,0,0,0,0,0,1,5,0,0,0,0,0,0,0,0,0,0,0],"split_type":[0,0,0,0,0,0,0,0,0,0,0,0,0,0,0,0,0,0,0,0,0,0,0,0,0,0,0,0,0,0,0,0,0,0,0,0,0,0,0,0,0,0,0,0,0,0,0,0,0,0,0,0,0,0,0,0,0,0,0,0,0,0,0,0,0,0,0,0,0,0,0,0,0,0,0,0,0,0,0,0,0],"sum_hessian":[2.2858027E3,1.2359636E3,1.049839E3,4.3514368E2,8.0081995E2,1.0068379E3,4.3001125E1,2.3331721E2,2.0182645E2,3.1587354E2,4.849464E2,9.868357E2,2.0002193E1,3.6923637E1,6.0774884E0,2.20882E2,1.2435209E1,1.9903865E2,2.787798E0,1.0340095E2,2.1247258E2,1.4063647E1,5.9385457E0,7.5017095E0,2.9421926E1,3.8277643E0,2.2497241E0,9.4038315E0,2.1147818E2,5.0352917E0,7.399917E0,1.9689375E2,2.1449053E0,1.3942254E0,1.3935726E0,9.258823E1,1.0812722E1,1.9247762E2,1.9994974E1,1.2700764E1,1.362884E0,4.738763E0,1.1997827E0,3.41922E0,4.08249E0,1.1229075E0,2.8299019E1,1.1430668E0,1.1066573E0,4.500039E0,4.903793E0,2.0535571E2,6.122471E0,2.6458097E0,2.389482E0,1.9586133E2,1.0324296E0,4.786566E0,8.780166E1,1.9055571E2,1.9219081E0,3.8292887E0,1.6165686E1,2.2032928E0,1.215927E0,1.7912695E0,2.0356444E2,1.9180359E0,4.2044353E0,7.292905E1,1.4872612E1,1.8951935E2,1.0363609E0,2.6279044E0,1.2013842E0,2.7433197E0,1.4611154E0,2.2223742E1,5.0705303E1,9.515641E0,5.3569713E0],"tree_param":{"num_deleted":"0","num_feature":"18","num_nodes":"81","size_leaf_vector":"1"}},{"base_weights":[3.946117E-2,7.7641404E-1,-1.1879091E0,-1.1876085E-1,1.0752605E0,-1.2295092E0,-4.5164302E-1,-9.966463E-1,1.1131572E0,1.1098489E0,-9.4019836E-1,-1.0863761E0,-1.2950474E0,1.06685996E-1,-8.332969E-1,4.2699593E-1,-1.1389619E0,1.11919E-1,2.16352E-2,1.120397E0,-5.9780335E-1,6.777861E-2,-1.2515503E-1,-1.2557663E0,-6.925499E-1,-1.2987916E0,-6.349302E-1,8.301923E-2,-1.0276222E0,1.1577358E-1,-7.2021747E-1,-1.2666534E0,-6.8192387E-1,1.1257297E0,6.425295E-1,6.7172356E-2,-9.812022E-2,-1.2845288E-1,1.260544E-1,-2.9754212E-2,-1.09771125E-1,-4.2714808E-2,-1.3010319E-1,2.571631E-2,-9.665233E-2,-1.1866267E0,8.9989774E-2,-4.5714803E-2,-1.1217451E-1,3.2260392E-3,-1.280594E-1,-7.603089E-1,1.1480104E-1,3.219311E-2,1.126683E-1,-4.54004E-2,8.194692E-1,-4.493803E-1,1.2389934E-1,-1.2561075E-1,3.242405E-2,9.441831E-2,-5.6785625E-1,-4.5909457E-2,4.176418E-2,-1.17354654E-1,-2.928511E-1,-2.4444697E-2,9.5297955E-2,-1.0356102E0,-4.26954E-3,-9.045016E-2,-1.4023724E-3,9.03941E-2,-1.1293825E-1,-1.325944E-1,7.253843E-2,-5.0563402E-2,1.1756474E-1],"categories":[],"categories_nodes":[],"categories_segments":[],"categories_sizes":[],"default_left":[0,0,0,0,0,0,0,0,0,0,0,0,0,0,0,0,0,0,0,0,0,0,0,0,0,0,0,0,0,0,0,0,0,0,0,0,0,0,0,0,0,0,0,0,0,0,0,0,0,0,0,0,0,0,0,0,0,0,0,0,0,0,0,0,0,0,0,0,0,0,0,0,0,0,0,0,0,0,0],"id":10,"left_children":[1,3,5,7,9,11,13,15,17,19,21,23,25,-1,27,29,31,-1,-1,33,35,-1,-1,37,39,41,43,-1,45,-1,47,49,51,53,55,-1,-1,-1,-1,57,-1,-1,-1,-1,-1,59,61,63,-1,-1,-1,65,-1,-1,-1,-1,67,69,-1,-1,-1,-1,71,-1,-1,-1,73,-1,-1,75,77,-1,-1,-1,-1,-1,-1,-1,-1],"loss_changes":[1.9254015E3,3.559344E2,2.3905273E1,3.6209265E2,7.056213E1,5.678589E0,2.6557285E1,4.008081E1,5.1182556E-1,1.8337646E1,9.596994E0,1.5369873E1,4.430542E-1,0E0,1.2476221E1,1.633239E1,9.52066E0,0E0,0E0,1.7617188E0,3.9073942E0,0E0,0E0,1.3850037E1,2.022697E1,4.3823242E-1,1.6830026E0,0E0,5.90744E0,0E0,2.0640097E0,2.5385895E0,6.757267E0,3.753662E-1,2.912178E0,0E0,0E0,0E0,0E0,1.634229E1,0E0,0E0,0E0,0E0,0E0,3.414528E0,3.3430545E0,9.49664E-1,0E0,0E0,0E0,7.3716297E0,0E0,0E0,0E0,0E0,1.88486E0,6.0009127E0,0E0,0E0,0E0,0E0,6.2986577E-1,0E0,0E0,0E0,2.1117249E1,0E0,0E0,6.0380497E0,8.927234E0,0E0,0E0,0E0,0E0,0E0,0E0,0E0,0E0],"parents":[2147483647,0,0,1,1,2,2,3,3,4,4,5,5,6,6,7,7,8,8,9,9,10,10,11,11,12,12,14,14,15,15,16,16,19,19,20,20,23,23,24,24,25,25,26,26,28,28,30,30,31,31,32,32,33,33,34,34,39,39,45,45,46,46,47,47,51,51,56,56,57,57,62,62,66,66,69,69,70,70],"right_children":[2,4,6,8,10,12,14,16,18,20,22,24,26,-1,28,30,32,-1,-1,34,36,-1,-1,38,40,42,44,-1,46,-1,48,50,52,54,56,-1,-1,-1,-1,58,-1,-1,-1,-1,-1,60,62,64,-1,-1,-1,66,-1,-1,-1,-1,68,70,-1,-1,-1,-1,72,-1,-1,-1,74,-1,-1,76,78,-1,-1,-1,-1,-1,-1,-1,-1],"split_conditions":[2E0,1E0,1E0,1E0,2E0,2E0,3.6E1,1E0,1.6E1,1.08E2,3.2E1,1E0,1E0,1.06685996E-1,1E0,1E0,1.4E1,1.11919E-1,2.16352E-2,1E0,1.4E1,6.777861E-2,-1.2515503E-1,4E0,1.8E1,1.7E1,4E1,8.301923E-2,5E0,1.1577358E-1,2E0,2E0,1E0,4E0,2E0,6.7172356E-2,-9.812022E-2,-1.2845288E-1,1.260544E-1,1.7E1,-1.09771125E-1,-4.2714808E-2,-1.3010319E-1,2.571631E-2,-9.665233E-2,8E0,1.025E3,1.5E1,-1.1217451E-1,3.2260392E-3,-1.280594E-1,5E0,1.1480104E-1,3.219311E-2,1.126683E-1,-4.54004E-2,1E0,1.5E1,1.2389934E-1,-1.2561075E-1,3.242405E-2,9.441831E-2,3E0,-4.5909457E-2,4.176418E-2,-1.17354654E-1,2E0,-2.4444697E-2,9.5297955E-2,4.4E1,2.1E1,-9.045016E-2,-1.4023724E-3,9.03941E-2,-1.1293825E-1,-1.325944E-1,7.253843E-2,-5.0563402E-2,1.1756474E-1],"split_indices":[7,14,12,12,10,8,1,6,0,1,1,10,13,0,14,10,0,0,0,13,0,0,0,6,3,1,3,0,14,0,8,3,13,1,14,0,0,0,0,0,0,0,0,0,0,8,14,1,0,0,0,3,0,0,0,0,12,0,0,0,0,0,8,0,0,0,8,0,0,1,1,0,0,0,0,0,0,0,0],"split_type":[0,0,0,0,0,0,0,0,0,0,0,0,0,0,0,0,0,0,0,0,0,0,0,0,0,0,0,0,0,0,0,0,0,0,0,0,0,0,0,0,0,0,0,0,0,0,0,0,0,0,0,0,0,0,0,0,0,0,0,0,0,0,0,0,0,0,0,0,0,0,0,0,0,0,0,0,0,0,0],"sum_hessian":[2.1266387E3,1.3290197E3,7.97619E2,3.3278543E2,9.9623425E2,7.543284E2,4.3290577E1,1.9442552E2,1.3835991E2,9.7986755E2,1.6366732E1,2.4243477E2,5.1189365E2,8.3344755E0,3.49561E1,1.748777E1,1.7693776E2,1.3718906E2,1.1708469E0,9.741939E2,5.673644E0,2.4512987E0,1.3915433E1,1.679909E2,7.444387E1,5.0804446E2,3.84919E0,3.314103E0,3.1641998E1,1.0677412E1,6.810358E0,1.3691402E2,4.002374E1,9.621018E2,1.2092108E1,1.1415783E0,4.532066E0,1.6657637E2,1.4145291E0,2.8649742E1,4.579413E1,1.7937462E0,5.0625073E2,1.1038735E0,2.7453165E0,2.7646881E1,3.995117E0,2.9569695E0,3.8533883E0,1.4398661E0,1.3547415E2,3.8940254E1,1.0834862E0,1.5409803E0,9.605608E2,1.462544E0,1.0629564E1,2.2014475E1,6.635268E0,2.6592575E1,1.0543064E0,1.5487924E0,2.4463246E0,1.5676246E0,1.389345E0,1.986707E1,1.9073185E1,1.0925257E0,9.537039E0,8.928553E0,1.3085921E1,1.1276926E0,1.3186321E0,7.8137636E0,1.1259421E1,7.876937E0,1.0516162E0,9.584703E0,3.5012183E0],"tree_param":{"num_deleted":"0","num_feature":"18","num_nodes":"79","size_leaf_vector":"1"}},{"base_weights":[3.1916145E-2,7.5123006E-1,-1.1471356E0,-7.30622E-3,1.0882158E0,-1.1883705E0,-4.070662E-1,1.12365685E-1,-4.783519E-1,1.111129E0,-7.15662E-1,-1.1929972E0,8.746112E-2,1.0306122E-1,-7.476037E-1,-9.699429E-1,1.0236186E0,1.118932E-1,5.3248507E-1,7.2677605E-2,-1.2410082E-1,-1.0583465E0,-1.253206E0,-8.812384E-1,7.1117036E-2,-1.2298706E0,-7.501917E-1,1.0482817E0,-2.3019902E-2,8.95288E-2,-7.6630104E-1,-1.0917685E0,1.8966213E-1,-1.9104835E-3,-1.2572081E0,-4.3862683E-1,-1.21136785E-1,1.0060764E-2,-1.2494128E-1,-1.5339227E-1,-1.210729E0,1.0711168E0,-6.7699316E-4,-1.1178609E-1,3.7529045E-3,-1.1022795E0,4.993041E-2,1.04864374E-1,-9.714378E-2,-1.2664075E-1,-8.4438205E-1,2.8347427E-1,-1.1625117E-1,-6.143706E-1,2.3621146E-1,-1.2247292E-1,-2.2014184E-2,1.0911869E-1,-3.788976E-3,-1.1132554E0,4.1197E-2,3.834262E-1,-1.1604941E-1,7.764223E-1,-5.991002E-1,-2.3991315E-2,-1.2610595E-1,7.035214E-2,-6.7584015E-2,-1.12289764E-1,2.270477E-2,1.2374065E-1,-6.963802E-2,2.5356734E-2,1.1408875E-1,-9.604877E-3,-8.0787264E-2],"categories":[],"categories_nodes":[],"categories_segments":[],"categories_sizes":[],"default_left":[0,0,0,0,0,0,0,0,0,0,0,0,0,0,0,0,0,0,0,0,0,0,0,0,0,0,0,0,0,0,0,0,0,0,0,0,0,0,0,0,0,0,0,0,0,0,0,0,0,0,0,0,0,0,0,0,0,0,0,0,0,0,0,0,0,0,0,0,0,0,0,0,0,0,0,0,0],"id":11,"left_children":[1,3,5,7,9,11,13,-1,15,17,19,21,-1,-1,23,25,27,-1,29,-1,-1,31,33,35,-1,37,39,41,-1,-1,43,45,47,-1,49,51,-1,-1,-1,53,55,57,-1,-1,-1,59,-1,-1,-1,-1,61,63,-1,65,67,-1,-1,-1,-1,69,-1,71,-1,73,75,-1,-1,-1,-1,-1,-1,-1,-1,-1,-1,-1,-1],"loss_changes":[1.6779768E3,3.1410657E2,2.2394165E1,2.0242984E2,3.5961792E1,7.8164673E0,2.0886082E1,0E0,1.9905176E2,3.1993408E0,9.449649E0,4.4171143E0,0E0,0E0,7.2154503E0,1.065036E1,2.3017883E0,0E0,6.854945E0,0E0,0E0,9.605698E0,2.3669434E0,4.058058E0,0E0,2.4983978E0,3.0694725E1,1.5859528E0,0E0,0E0,1.0020278E0,4.2229004E0,7.7298727E0,0E0,7.631836E-1,8.162975E0,0E0,0E0,0E0,9.139893E0,6.0785675E-1,1.4690704E0,0E0,0E0,0E0,4.08963E0,0E0,0E0,0E0,0E0,5.69201E0,4.07887E0,0E0,5.3197966E0,1.23517685E1,0E0,0E0,0E0,0E0,3.061493E0,0E0,4.107257E0,0E0,8.093059E-1,2.9430854E-1,0E0,0E0,0E0,0E0,0E0,0E0,0E0,0E0,0E0,0E0,0E0,0E0],"parents":[2147483647,0,0,1,1,2,2,3,3,4,4,5,5,6,6,8,8,9,9,10,10,11,11,14,14,15,15,16,16,18,18,21,21,22,22,23,23,25,25,26,26,27,27,30,30,31,31,32,32,34,34,35,35,39,39,40,40,41,41,45,45,50,50,51,51,53,53,54,54,59,59,61,61,63,63,64,64],"right_children":[2,4,6,8,10,12,14,-1,16,18,20,22,-1,-1,24,26,28,-1,30,-1,-1,32,34,36,-1,38,40,42,-1,-1,44,46,48,-1,50,52,-1,-1,-1,54,56,58,-1,-1,-1,60,-1,-1,-1,-1,62,64,-1,66,68,-1,-1,-1,-1,70,-1,72,-1,74,76,-1,-1,-1,-1,-1,-1,-1,-1,-1,-1,-1,-1],"split_conditions":[2E0,1E0,1E0,1E0,8E1,9E0,3.6E1,1.12365685E-1,1E0,3.1E1,1E0,2E0,8.746112E-2,1.0306122E-1,9E0,7E0,1E0,1.118932E-1,1E0,7.2677605E-2,-1.2410082E-1,9E0,1.7E1,1.23E2,7.1117036E-2,6E0,2E0,9E0,-2.3019902E-2,8.95288E-2,5.1E1,5E0,4.8E1,-1.9104835E-3,5E0,1E0,-1.21136785E-1,1.0060764E-2,-1.2494128E-1,5E0,6.1E1,3.2E1,-6.7699316E-4,-1.1178609E-1,3.7529045E-3,1E0,4.993041E-2,1.04864374E-1,-9.714378E-2,-1.2664075E-1,4.2E1,3.6E1,-1.1625117E-1,1.6E1,1.4E1,-1.2247292E-1,-2.2014184E-2,1.0911869E-1,-3.788976E-3,1E0,4.1197E-2,6.1E1,-1.1604941E-1,3E0,9.4E1,-2.3991315E-2,-1.2610595E-1,7.035214E-2,-6.7584015E-2,-1.12289764E-1,2.270477E-2,1.2374065E-1,-6.963802E-2,2.5356734E-2,1.1408875E-1,-9.604877E-3,-8.0787264E-2],"split_indices":[7,12,12,7,1,7,1,0,16,1,13,8,0,0,8,2,13,0,13,0,0,16,1,1,0,2,8,16,0,0,1,5,1,0,7,13,0,0,0,3,8,1,0,0,0,15,0,0,0,0,3,3,0,1,3,0,0,0,0,13,0,1,0,8,1,0,0,0,0,0,0,0,0,0,0,0,0],"split_type":[0,0,0,0,0,0,0,0,0,0,0,0,0,0,0,0,0,0,0,0,0,0,0,0,0,0,0,0,0,0,0,0,0,0,0,0,0,0,0,0,0,0,0,0,0,0,0,0,0,0,0,0,0,0,0,0,0,0,0,0,0,0,0,0,0,0,0,0,0,0,0,0,0,0,0,0,0],"sum_hessian":[1.9764774E3,1.2277914E3,7.4868604E2,3.779731E2,8.4981824E2,7.085989E2,4.008716E1,1.1072973E2,2.6724338E2,8.3953827E2,1.0279953E1,7.07434E2,1.1648861E0,7.288827E0,3.2798332E1,2.0161089E2,6.56325E1,8.274465E2,1.2091768E1,2.6421108E0,7.637842E0,2.2432722E2,4.8310678E2,3.0408583E1,2.3897498E0,9.025648E1,1.11354416E2,6.452715E1,1.1053438E0,9.694406E0,2.3973622E0,2.185983E2,5.7289214E0,1.5802937E0,4.815265E2,1.3985959E1,1.6422623E1,1.2464588E0,8.901002E1,4.9082558E1,6.2271854E1,6.3145233E1,1.3819208E0,1.396101E0,1.0012614E0,2.1746886E2,1.1294514E0,3.3485312E0,2.3803902E0,4.690075E2,1.2518962E1,7.306181E0,6.679778E0,2.2217705E1,2.6864855E1,6.1170948E1,1.1009085E0,6.203857E1,1.106662E0,2.161668E2,1.3020482E0,2.519612E0,9.99935E0,4.765026E0,2.5411549E0,1.4938646E1,7.279059E0,1.7914566E1,8.950288E0,2.1478384E2,1.3829585E0,1.325427E0,1.194185E0,2.653742E0,2.1112843E0,1.1735266E0,1.3676281E0],"tree_param":{"num_deleted":"0","num_feature":"18","num_nodes":"77","size_leaf_vector":"1"}},{"base_weights":[2.8749406E-2,7.3701125E-1,-1.118777E0,-1.2603189E-1,1.0342282E0,-1.1295538E0,8.670821E-2,-9.563081E-1,1.0654951E0,1.0910048E0,-6.645011E-1,-1.1590583E0,-5.371607E-1,1.0188385E-1,-1.0398705E0,1.0872556E-1,-5.5912014E-2,1.0942541E0,-2.2219442E-2,-6.057074E-2,-1.2200653E-1,-1.1713533E0,-5.7069796E-1,9.9872015E-2,-9.082736E-1,-1.2075874E0,-6.1486036E-1,1.0965226E-1,5.337106E-1,2.896557E-1,-9.8331645E-2,-9.6688515E-1,-1.2017843E0,7.3457414E-1,-1.0766642E0,6.050231E-2,-1.0405048E0,2.4511956E-2,-1.2245645E-1,-9.8848647E-1,-3.066178E-1,-2.1909157E-2,8.926989E-2,6.001879E-1,-3.947663E-1,-1.1313611E0,8.0406994E-1,-1.2049414E0,2.4634315E-2,-7.7708416E-2,1.7096497E-1,-1.1908046E-1,-2.3906927E-3,-1.1373276E0,6.6404087E-3,-2.2846637E-2,-1.0520654E0,2.2607951E-1,-9.105618E-1,9.754341E-2,-1.384651E-1,-8.196133E-2,2.8170366E-2,-1.23968795E-1,-4.816999E-1,1.2313296E-1,-8.3882496E-2,-1.2176342E-1,-9.1855776E-1,-3.2827005E-2,-1.1997928E-1,5.3253826E-2,-5.009046E-2,-2.3140056E-2,-1.0851985E-1,1.157129E-1,-1.3490908E-2,-4.9742267E-2,-1.1104315E-1,1.5249762E-2,-3.241634E-2,1.8824458E-2,-9.428896E-2,1.20247126E-1,-1.1806836E-1],"categories":[],"categories_nodes":[],"categories_segments":[],"categories_sizes":[],"default_left":[0,0,0,0,0,0,0,0,0,0,0,0,0,0,0,0,0,0,0,0,0,0,0,0,0,0,0,0,0,0,0,0,0,0,0,0,0,0,0,0,0,0,0,0,0,0,0,0,0,0,0,0,0,0,0,0,0,0,0,0,0,0,0,0,0,0,0,0,0,0,0,0,0,0,0,0,0,0,0,0,0,0,0,0,0],"id":12,"left_children":[1,3,5,7,9,11,-1,13,15,17,19,21,23,-1,25,-1,-1,27,-1,29,-1,31,33,-1,35,37,39,-1,41,43,-1,45,47,49,51,-1,53,-1,-1,55,57,-1,-1,59,61,63,65,67,-1,-1,-1,-1,-1,69,71,-1,73,75,77,-1,79,-1,-1,-1,81,-1,-1,-1,83,-1,-1,-1,-1,-1,-1,-1,-1,-1,-1,-1,-1,-1,-1,-1,-1],"loss_changes":[1.4889069E3,2.9069446E2,1.5942261E1,2.8896597E2,8.200098E1,1.1539368E1,0E0,2.945784E1,4.8502502E0,3.7241821E0,9.279061E0,4.120056E0,2.0785858E1,0E0,1.1059738E1,0E0,0E0,4.4976807E-1,0E0,4.941304E0,0E0,2.866516E0,1.102738E1,0E0,6.3550453E0,3.202591E0,5.3271465E0,0E0,1.6087133E0,2.6209433E0,0E0,2.6831497E1,2.8547363E0,8.586866E0,1.3624773E0,0E0,2.7126675E0,0E0,0E0,8.058014E-1,9.290323E0,0E0,0E0,2.3837628E0,1.4104025E0,5.162796E0,6.7518134E0,9.11438E-1,0E0,0E0,0E0,0E0,0E0,8.407154E-1,1.1348735E0,0E0,2.8458977E-1,5.468038E0,5.568247E-1,0E0,2.4441834E-1,0E0,0E0,0E0,4.296811E0,0E0,0E0,0E0,1.6859451E1,0E0,0E0,0E0,0E0,0E0,0E0,0E0,0E0,0E0,0E0,0E0,0E0,0E0,0E0,0E0,0E0],"parents":[2147483647,0,0,1,1,2,2,3,3,4,4,5,5,7,7,8,8,9,9,10,10,11,11,12,12,14,14,17,17,19,19,21,21,22,22,24,24,25,25,26,26,28,28,29,29,31,31,32,32,33,33,34,34,36,36,39,39,40,40,43,43,44,44,45,45,46,46,47,47,53,53,54,54,56,56,57,57,58,58,60,60,64,64,68,68],"right_children":[2,4,6,8,10,12,-1,14,16,18,20,22,24,-1,26,-1,-1,28,-1,30,-1,32,34,-1,36,38,40,-1,42,44,-1,46,48,50,52,-1,54,-1,-1,56,58,-1,-1,60,62,64,66,68,-1,-1,-1,-1,-1,70,72,-1,74,76,78,-1,80,-1,-1,-1,82,-1,-1,-1,84,-1,-1,-1,-1,-1,-1,-1,-1,-1,-1,-1,-1,-1,-1,-1,-1],"split_conditions":[2E0,1E0,1E0,1E0,4.8E1,1E0,8.670821E-2,1E0,2.8E1,6E0,1.5E1,5E0,3.6E1,1.0188385E-1,1.4E1,1.0872556E-1,-5.5912014E-2,1.4E1,-2.2219442E-2,2E0,-1.2200653E-1,2.1E1,7.2E1,9.9872015E-2,1E0,2E0,1.9E1,1.0965226E-1,1.6E1,5E0,-9.8331645E-2,1.7E1,1.7E1,1E0,4.4E1,6.050231E-2,5E0,2.4511956E-2,-1.2245645E-1,1E0,1.3E1,-2.1909157E-2,8.926989E-2,5.3E1,2.5E1,1.5E1,1E0,9E0,2.4634315E-2,-7.7708416E-2,1.7096497E-1,-1.1908046E-1,-2.3906927E-3,1.5E1,2E0,-2.2846637E-2,6E0,2.7E1,1E0,9.754341E-2,8.3E1,-8.196133E-2,2.8170366E-2,-1.23968795E-1,1.1E1,1.2313296E-1,-8.3882496E-2,-1.2176342E-1,7E0,-3.2827005E-2,-1.1997928E-1,5.3253826E-2,-5.009046E-2,-2.3140056E-2,-1.0851985E-1,1.157129E-1,-1.3490908E-2,-4.9742267E-2,-1.1104315E-1,1.5249762E-2,-3.241634E-2,1.8824458E-2,-9.428896E-2,1.20247126E-1,-1.1806836E-1],"split_indices":[7,14,17,12,2,12,0,7,2,10,0,7,2,0,0,0,0,4,0,5,0,2,2,0,14,4,2,0,4,14,0,0,16,5,10,0,14,0,0,5,4,0,0,4,4,0,14,16,0,0,0,0,0,4,11,0,2,2,10,0,2,0,0,0,4,0,0,0,10,0,0,0,0,0,0,0,0,0,0,0,0,0,0,0,0],"split_type":[0,0,0,0,0,0,0,0,0,0,0,0,0,0,0,0,0,0,0,0,0,0,0,0,0,0,0,0,0,0,0,0,0,0,0,0,0,0,0,0,0,0,0,0,0,0,0,0,0,0,0,0,0,0,0,0,0,0,0,0,0,0,0,0,0,0,0,0,0,0,0,0,0,0,0,0,0,0,0,0,0,0,0,0,0],"sum_hessian":[1.8299243E3,1.1317546E3,6.981696E2,2.900624E2,8.4169226E2,6.948302E2,3.33945E0,1.7106137E2,1.1900105E2,8.148164E2,2.6875854E1,6.609543E2,3.3875904E1,6.489029E0,1.6457234E2,1.1775458E2,1.2464727E0,8.1297156E2,1.8448236E0,1.34087715E1,1.3467084E1,6.464544E2,1.4499884E1,6.263354E0,2.7612549E1,1.1668497E2,4.788737E1,8.0874255E2,4.2290297E0,1.0217015E1,3.1917555E0,8.7992935E1,5.584615E2,3.9243004E0,1.05755825E1,1.9315681E0,2.568098E1,1.1926534E0,1.1549232E2,2.0650137E1,2.7237234E1,1.4913502E0,2.7376795E0,7.1128745E0,3.1041412E0,8.084563E1,7.147309E0,5.574141E2,1.0473347E0,1.6183803E0,2.3059204E0,9.422827E0,1.152756E0,2.3428572E1,2.252409E0,1.9487125E0,1.8701424E1,1.4804696E1,1.2432538E1,4.5041466E0,2.608728E0,1.7767047E0,1.3274366E0,6.8513275E1,1.23323555E1,5.8709836E0,1.2763256E0,5.306437E2,2.6770443E1,2.1275475E0,2.1301023E1,1.0820198E0,1.1703893E0,1.0355741E0,1.766585E1,3.5201638E0,1.1284533E1,5.191082E0,7.241456E0,1.0859646E0,1.5227633E0,5.26949E0,7.062866E0,2.5499303E0,2.4220512E1],"tree_param":{"num_deleted":"0","num_feature":"18","num_nodes":"85","size_leaf_vector":"1"}},{"base_weights":[3.301096E-2,-7.190389E-1,9.883659E-1,-9.154701E-1,1.0962059E-1,1.0763345E0,-8.67854E-1,7.579155E-1,-1.0459146E0,1.0933051E-1,3.4050366E-1,-9.510056E-1,7.423997E-2,1.0816943E-1,-9.350332E-1,-1.1458378E0,-8.919644E-1,8.4577835E-1,-5.6754655E-1,-5.6007355E-1,-1.167643E0,-1.23270705E-1,-5.309967E-1,6.836494E-1,-1.1743684E0,1.5701045E-1,-1.0384E0,9.792198E-2,-3.2940195E-3,-1.4528498E-1,1.759856E-2,9.1431476E-2,-1.038351E-1,-1.2091147E-1,-2.1771066E-2,1.331147E-2,-8.0411926E-2,9.982007E-2,-4.733142E-2,-1.1832772E0,5.7523813E-2,4.2684808E-1,-3.9064857E-1,-1.9190131E-1,-1.0669769E0,4.706595E-1,-6.783233E-2,-1.1889098E-1,-5.035435E-1,7.1780884E-1,-2.7371758E-1,-1.0143191E0,2.9519351E-2,-6.514207E-1,8.557054E-2,-1.1150472E0,-6.120424E-1,7.144476E-2,6.1825E-3,2.1544192E-2,-9.1375925E-2,-1.6604664E-2,1.04486875E-1,8.3912924E-2,-8.422856E-2,-1.1549594E-1,-2.8990528E-2,1.17291234E-1,-2.837959E-2,-6.7928606E-3,-9.410839E-2,-1.12406336E-1,-3.5073825E-3,9.92994E-2,-1.0851856E-1],"categories":[],"categories_nodes":[],"categories_segments":[],"categories_sizes":[],"default_left":[0,0,0,0,0,0,0,0,0,0,0,0,0,0,0,0,0,0,0,0,0,0,0,0,0,0,0,0,0,0,0,0,0,0,0,0,0,0,0,0,0,0,0,0,0,0,0,0,0,0,0,0,0,0,0,0,0,0,0,0,0,0,0,0,0,0,0,0,0,0,0,0,0,0,0],"id":13,"left_children":[1,3,5,7,-1,9,11,13,15,-1,17,19,-1,-1,21,23,25,27,29,31,33,-1,35,37,39,41,43,-1,-1,-1,45,-1,-1,-1,-1,-1,-1,-1,-1,47,-1,49,51,53,55,57,-1,-1,59,61,63,65,67,69,-1,71,73,-1,-1,-1,-1,-1,-1,-1,-1,-1,-1,-1,-1,-1,-1,-1,-1,-1,-1],"loss_changes":[1.225775E3,3.4139984E2,1.2363788E2,1.8894647E2,0E0,8.592529E0,5.3327026E0,3.5496777E1,1.12854E1,0E0,8.571709E0,2.1658993E0,0E0,0E0,6.2474537E-1,2.5942871E1,4.922676E1,1.4079905E0,3.6017747E0,1.0676476E1,5.4445267E-1,0E0,1.2441363E0,3.3940022E0,8.078552E0,6.0772943E0,6.5786133E0,0E0,0E0,0E0,1.9412485E0,0E0,0E0,0E0,0E0,0E0,0E0,0E0,0E0,1.2105103E0,0E0,5.755513E0,3.6262355E0,5.5526857E0,5.244812E0,3.2522517E-1,0E0,0E0,1.8538802E0,5.8234787E0,6.228502E0,2.3086452E-1,3.6184666E0,1.2511187E0,0E0,2.3356628E0,2.243141E1,0E0,0E0,0E0,0E0,0E0,0E0,0E0,0E0,0E0,0E0,0E0,0E0,0E0,0E0,0E0,0E0,0E0,0E0],"parents":[2147483647,0,0,1,1,2,2,3,3,5,5,6,6,7,7,8,8,10,10,11,11,14,14,15,15,16,16,17,17,18,18,19,19,20,20,22,22,23,23,24,24,25,25,26,26,30,30,39,39,41,41,42,42,43,43,44,44,45,45,48,48,49,49,50,50,51,51,52,52,53,53,55,55,56,56],"right_children":[2,4,6,8,-1,10,12,14,16,-1,18,20,-1,-1,22,24,26,28,30,32,34,-1,36,38,40,42,44,-1,-1,-1,46,-1,-1,-1,-1,-1,-1,-1,-1,48,-1,50,52,54,56,58,-1,-1,60,62,64,66,68,70,-1,72,74,-1,-1,-1,-1,-1,-1,-1,-1,-1,-1,-1,-1,-1,-1,-1,-1,-1,-1],"split_conditions":[1E0,1E0,8E1,2E0,1.0962059E-1,3.2E1,6E0,1E0,1.5E1,1.0933051E-1,1E0,1E0,7.423997E-2,1.0816943E-1,7E0,1E0,1.1E1,1.7E1,8E0,1.5E1,7E0,-1.23270705E-1,1.4E1,2E0,1E0,2.7E1,2.1E1,9.792198E-2,-3.2940195E-3,-1.4528498E-1,2E0,9.1431476E-2,-1.038351E-1,-1.2091147E-1,-2.1771066E-2,1.331147E-2,-8.0411926E-2,9.982007E-2,-4.733142E-2,5E0,5.7523813E-2,1E0,3.1E1,1.7E1,9E0,2E0,-6.783233E-2,-1.1889098E-1,1E0,1.4E1,1.6E1,8E0,3.5E1,1.6E1,8.557054E-2,1E0,4.5E1,7.144476E-2,6.1825E-3,2.1544192E-2,-9.1375925E-2,-1.6604664E-2,1.04486875E-1,8.3912924E-2,-8.422856E-2,-1.1549594E-1,-2.8990528E-2,1.17291234E-1,-2.837959E-2,-6.7928606E-3,-9.410839E-2,-1.12406336E-1,-3.5073825E-3,9.92994E-2,-1.0851856E-1],"split_indices":[12,17,1,4,0,1,16,6,0,0,13,13,0,0,1,6,4,0,4,0,6,0,0,10,13,1,1,0,0,0,14,0,0,0,0,0,0,0,0,6,0,14,1,0,16,6,0,0,10,1,0,4,1,1,0,9,4,0,0,0,0,0,0,0,0,0,0,0,0,0,0,0,0,0,0],"split_type":[0,0,0,0,0,0,0,0,0,0,0,0,0,0,0,0,0,0,0,0,0,0,0,0,0,0,0,0,0,0,0,0,0,0,0,0,0,0,0,0,0,0,0,0,0,0,0,0,0,0,0,0,0,0,0,0,0,0,0,0,0,0,0,0,0,0,0,0,0,0,0,0,0,0,0],"sum_hessian":[1.7040906E3,9.536389E2,7.5045166E2,8.609676E2,9.267132E1,7.1689716E2,3.355449E1,6.1913303E1,7.990543E2,7.002611E2,1.663607E1,3.229616E1,1.2583278E0,5.2276424E1,9.63688E0,4.806441E2,3.1841022E2,1.0732606E1,5.9034643E0,1.279404E1,1.9502123E1,4.367872E0,5.2690077E0,7.027875E0,4.736162E2,3.8995842E1,2.794144E2,9.218344E0,1.5142629E0,1.7591089E0,4.1443553E0,2.9104123E0,9.883628E0,1.8424892E1,1.0772303E0,1.6848435E0,3.5841644E0,5.633486E0,1.3943892E0,4.7153885E2,2.077351E0,2.6271955E1,1.27238865E1,9.376626E0,2.7003775E2,2.7062283E0,1.4381269E0,4.669207E2,4.6181703E0,1.854513E1,7.7268243E0,4.5524464E0,8.17144E0,6.7805886E0,2.5960374E0,2.4291885E2,2.7118896E1,1.2270284E0,1.4791999E0,1.8501751E0,2.767995E0,5.1418796E0,1.3403251E1,2.451902E0,5.274923E0,3.3146002E0,1.2378459E0,1.1674538E0,7.0039864E0,2.6589527E0,4.121636E0,2.4086717E2,2.0516906E0,5.9240637E0,2.1194832E1],"tree_param":{"num_deleted":"0","num_feature":"18","num_nodes":"75","size_leaf_vector":"1"}},{"base_weights":[3.347359E-2,7.1826786E-1,-1.0520122E0,1.2814119E-2,1.0495826E0,-1.0913165E0,-3.7852752E-1,1.0851661E-1,-4.1792104E-1,1.0738018E0,-6.2093E-1,-1.0974615E0,4.9407557E-2,9.5983915E-2,-6.682137E-1,-8.7375486E-1,1.0725889E-1,1.0834755E-1,4.5302725E-1,5.308557E-1,-1.0649603E-1,-1.1040715E0,-6.373085E-2,-7.9395634E-1,8.497464E-2,-1.17413096E-1,-6.4932853E-1,8.156179E-1,-5.507912E-1,7.1633875E-2,6.709173E-3,-1.1227349E0,-6.8356407E-1,1.06096305E-1,-8.5008964E-2,-9.1796416E-1,7.597463E-2,-6.7773473E-1,7.936165E-2,3.3583455E-2,9.737039E-2,-8.397271E-2,8.209165E-3,-9.214629E-1,-1.1591569E-1,6.296517E-1,-1.14174224E-1,-2.5803003E-1,-1.0862168E-1,-5.1187223E-1,-9.85405E-1,-1.1835195E-1,-4.6846214E-1,-7.141681E-2,9.492501E-1,6.031951E-1,-9.570001E-2,8.6366065E-2,-6.263826E-2,-1.0223625E-1,-3.1916972E-2,-6.7520994E-3,-8.3522014E-2,1.3412736E-1,3.4897454E-2,-1.6276347E-2,9.667959E-2],"categories":[],"categories_nodes":[],"categories_segments":[],"categories_sizes":[],"default_left":[0,0,0,0,0,0,0,0,0,0,0,0,0,0,0,0,0,0,0,0,0,0,0,0,0,0,0,0,0,0,0,0,0,0,0,0,0,0,0,0,0,0,0,0,0,0,0,0,0,0,0,0,0,0,0,0,0,0,0,0,0,0,0,0,0,0,0],"id":14,"left_children":[1,3,5,7,9,11,13,-1,15,17,19,21,-1,-1,23,25,-1,-1,27,29,-1,31,33,35,-1,-1,37,39,41,-1,-1,43,45,-1,-1,47,-1,49,-1,-1,-1,-1,-1,51,-1,53,-1,55,-1,57,59,-1,61,-1,63,65,-1,-1,-1,-1,-1,-1,-1,-1,-1,-1,-1],"loss_changes":[1.1683604E3,2.2523978E2,1.5681702E1,1.4317638E2,2.7197449E1,6.134033E0,1.42337265E1,0E0,1.5120312E2,3.3930664E0,5.682111E0,3.83844E0,0E0,0E0,6.288187E0,1.0692322E1,0E0,0E0,4.686786E0,2.4881023E-1,0E0,3.6931152E0,5.0550866E0,6.029974E0,0E0,0E0,4.6159363E0,3.5228825E-1,7.4302804E-1,0E0,0E0,2.909851E0,1.6789982E1,0E0,0E0,2.6159878E0,0E0,4.5023155E0,0E0,0E0,0E0,0E0,0E0,9.8955E0,0E0,3.9218938E0,0E0,4.5567327E0,0E0,1.0909622E1,4.932251E-1,0E0,4.930872E0,0E0,1.068893E0,1.153011E0,0E0,0E0,0E0,0E0,0E0,0E0,0E0,0E0,0E0,0E0,0E0],"parents":[2147483647,0,0,1,1,2,2,3,3,4,4,5,5,6,6,8,8,9,9,10,10,11,11,14,14,15,15,18,18,19,19,21,21,22,22,23,23,26,26,27,27,28,28,31,31,32,32,35,35,37,37,43,43,45,45,47,47,49,49,50,50,52,52,54,54,55,55],"right_children":[2,4,6,8,10,12,14,-1,16,18,20,22,-1,-1,24,26,-1,-1,28,30,-1,32,34,36,-1,-1,38,40,42,-1,-1,44,46,-1,-1,48,-1,50,-1,-1,-1,-1,-1,52,-1,54,-1,56,-1,58,60,-1,62,-1,64,66,-1,-1,-1,-1,-1,-1,-1,-1,-1,-1,-1],"split_conditions":[2E0,1E0,1E0,1E0,8E1,9E0,3.6E1,1.0851661E-1,1E0,3.1E1,1E0,1E0,4.9407557E-2,9.5983915E-2,6E0,7E0,1.0725889E-1,1.0834755E-1,1E0,2E0,-1.0649603E-1,9E0,3.3E1,9E0,8.497464E-2,-1.17413096E-1,2E0,7E0,5.1E1,7.1633875E-2,6.709173E-3,2.3E1,1E1,1.06096305E-1,-8.5008964E-2,1.8E1,7.597463E-2,1.4E1,7.936165E-2,3.3583455E-2,9.737039E-2,-8.397271E-2,8.209165E-3,1.3E1,-1.1591569E-1,4E0,-1.14174224E-1,1E0,-1.0862168E-1,1E0,2.84E2,-1.1835195E-1,1.9E1,-7.141681E-2,7E0,2E0,-9.570001E-2,8.6366065E-2,-6.263826E-2,-1.0223625E-1,-3.1916972E-2,-6.7520994E-3,-8.3522014E-2,1.3412736E-1,3.4897454E-2,-1.6276347E-2,9.667959E-2],"split_indices":[7,12,12,7,1,7,1,0,17,1,13,13,0,0,16,2,0,0,13,12,0,16,3,7,0,0,16,3,1,0,0,1,10,0,0,3,0,3,0,0,0,0,0,1,0,10,0,13,0,5,1,0,1,0,10,11,0,0,0,0,0,0,0,0,0,0,0],"split_type":[0,0,0,0,0,0,0,0,0,0,0,0,0,0,0,0,0,0,0,0,0,0,0,0,0,0,0,0,0,0,0,0,0,0,0,0,0,0,0,0,0,0,0,0,0,0,0,0,0,0,0,0,0,0,0,0,0,0,0,0,0,0,0,0,0,0,0],"sum_hessian":[1.5697664E3,9.627439E2,6.0702246E2,3.0799103E2,6.5475287E2,5.729641E2,3.405836E1,8.782468E1,2.2016635E2,6.45748E2,9.004878E0,5.710584E2,1.9056749E0,5.648517E0,2.8409845E1,1.6892026E2,5.1246094E1,6.351055E2,1.0642415E1,2.4511673E0,6.5537105E0,5.673625E2,3.6959653E0,2.6676973E1,1.7328715E0,7.0427376E1,9.849289E1,7.9560747E0,2.6863403E0,1.3618673E0,1.0893002E0,5.416524E2,2.5710043E1,1.3771209E0,2.3188446E0,2.508408E1,1.5928934E0,9.7111435E1,1.3814507E0,2.7461178E0,5.209957E0,1.6199439E0,1.0663965E0,8.70277E1,4.5462473E2,6.5532045E0,1.9156837E1,5.6107464E0,1.9473333E1,6.4827286E1,3.2284153E1,5.411188E1,3.291582E1,1.0218861E0,5.5313187E0,2.5750103E0,3.035736E0,4.4792295E0,6.0348053E1,3.0080963E1,2.203189E0,1.6290783E1,1.6625036E1,2.599335E0,2.9319837E0,1.0066874E0,1.5683229E0],"tree_param":{"num_deleted":"0","num_feature":"18","num_nodes":"67","size_leaf_vector":"1"}},{"base_weights":[3.38042E-2,7.0742226E-1,-1.0260999E0,-9.044848E-2,9.9919593E-1,-1.0693401E0,-2.8175408E-1,-7.900221E-1,1.0206022E0,1.0531287E0,-5.451624E-1,-1.0760854E0,5.0482906E-2,9.50534E-2,-5.8413553E-1,3.9806864E-1,-9.128796E-1,1.0480281E-1,-7.255145E-2,1.0580444E0,-4.9152117E-2,8.309546E-2,-7.5363857E-1,-9.35207E-1,-1.142771E0,-7.433689E-1,7.667037E-2,9.4129956E-1,-8.8592075E-2,-1.124639E0,-7.034068E-1,1.0670688E0,6.564183E-1,-9.5699745E-1,2.461667E-1,-1.1363875E0,-5.388869E-1,-1.1474406E0,1.471513E-3,-9.005511E-1,2.6334816E-1,9.050636E-3,1.0556906E-1,2.4806552E-2,-1.15275614E-1,-2.9544815E-2,-1.13629356E-1,1.07134655E-1,-5.7073325E-2,1.775731E-2,9.77351E-2,-1.0874093E0,-3.062917E-1,4.8046287E-2,-2.1981029E-2,-1.1573801E-1,-9.80986E-2,-7.1305465E-3,-9.216739E-1,-1.1614283E0,-6.488604E-1,3.965545E-2,-1.0196512E0,9.323298E-2,-6.1537217E-2,-5.8965296E-1,7.641494E-1,-7.843682E-2,6.306478E-2,-9.9818736E-1,7.495896E-2,-1.1683746E-1,-3.542117E-3,-6.034548E-2,1.7801432E-2,5.983646E-2,-6.732679E-2,1.3132733E-1,-9.843437E-2,-1.0902811E0,4.4429265E-2,-4.624659E-1,-1.1645597E-1,6.835915E-1,-1.0551391E-1,-3.7199533E-1,-1.09040774E-1,4.139742E-2,-8.1349306E-2,-5.67826E-2,1.0133292E-1,-1.2504232E-1,-2.4620794E-2,2.5256038E-2,-7.810644E-2,-3.0505244E-2,-1.1177869E-1,9.419109E-2,-6.2376376E-2,-7.4265213E-3,-6.353342E-2,1.1476296E-1,-1.7370796E-2,-8.376614E-2,2.921596E-2],"categories":[],"categories_nodes":[],"categories_segments":[],"categories_sizes":[],"default_left":[0,0,0,0,0,0,0,0,0,0,0,0,0,0,0,0,0,0,0,0,0,0,0,0,0,0,0,0,0,0,0,0,0,0,0,0,0,0,0,0,0,0,0,0,0,0,0,0,0,0,0,0,0,0,0,0,0,0,0,0,0,0,0,0,0,0,0,0,0,0,0,0,0,0,0,0,0,0,0,0,0,0,0,0,0,0,0,0,0,0,0,0,0,0,0,0,0,0,0,0,0,0,0,0,0],"id":15,"left_children":[1,3,5,7,9,11,13,15,17,19,21,23,-1,-1,25,27,29,-1,-1,31,-1,-1,33,35,37,39,-1,41,-1,43,45,47,49,51,53,55,57,59,-1,61,63,-1,-1,-1,-1,65,-1,-1,67,69,-1,71,73,-1,-1,-1,75,77,79,81,83,-1,85,-1,-1,87,89,-1,-1,91,-1,-1,-1,-1,-1,-1,-1,93,-1,95,97,99,-1,101,-1,103,-1,-1,-1,-1,-1,-1,-1,-1,-1,-1,-1,-1,-1,-1,-1,-1,-1,-1,-1],"loss_changes":[1.0276932E3,2.0496323E2,1.7701477E1,1.8468059E2,5.4253784E1,6.152649E0,1.2504007E1,2.1634659E1,5.158409E0,5.2510376E0,7.054316E0,3.8759766E0,0E0,0E0,6.2416553E0,1.08454895E1,5.080765E0,0E0,0E0,1.5518799E0,0E0,0E0,4.2984667E0,1.3309372E1,1.9233704E0,4.049939E0,0E0,9.3325806E-1,0E0,2.76223E0,2.0157246E1,2.975891E0,3.3143182E0,1.0934191E0,5.61193E-1,2.391159E0,1.2347389E1,1.6965942E0,0E0,3.6589642E0,2.9414318E0,0E0,0E0,0E0,0E0,1.2942365E1,0E0,0E0,2.1188684E0,5.5473967E0,0E0,1.1179466E0,7.116803E-1,0E0,0E0,0E0,1.7528136E0,3.7027607E0,5.795536E0,2.0666504E-1,7.1381836E0,0E0,4.9145126E-1,0E0,0E0,4.164469E0,4.5785103E0,0E0,0E0,2.861364E-1,0E0,0E0,0E0,0E0,0E0,0E0,0E0,2.8536854E0,0E0,3.086586E-1,4.3076315E0,1.6603208E-1,0E0,1.5426301E0,0E0,1.3104364E0,0E0,0E0,0E0,0E0,0E0,0E0,0E0,0E0,0E0,0E0,0E0,0E0,0E0,0E0,0E0,0E0,0E0,0E0,0E0],"parents":[2147483647,0,0,1,1,2,2,3,3,4,4,5,5,6,6,7,7,8,8,9,9,10,10,11,11,14,14,15,15,16,16,19,19,22,22,23,23,24,24,25,25,27,27,29,29,30,30,31,31,32,32,33,33,34,34,35,35,36,36,37,37,39,39,40,40,45,45,48,48,49,49,51,51,52,52,56,56,57,57,58,58,59,59,60,60,62,62,65,65,66,66,69,69,77,77,79,79,80,80,81,81,83,83,85,85],"right_children":[2,4,6,8,10,12,14,16,18,20,22,24,-1,-1,26,28,30,-1,-1,32,-1,-1,34,36,38,40,-1,42,-1,44,46,48,50,52,54,56,58,60,-1,62,64,-1,-1,-1,-1,66,-1,-1,68,70,-1,72,74,-1,-1,-1,76,78,80,82,84,-1,86,-1,-1,88,90,-1,-1,92,-1,-1,-1,-1,-1,-1,-1,94,-1,96,98,100,-1,102,-1,104,-1,-1,-1,-1,-1,-1,-1,-1,-1,-1,-1,-1,-1,-1,-1,-1,-1,-1,-1],"split_conditions":[2E0,1E0,1E0,1E0,4.5E1,9E0,3.6E1,1E0,2.9E1,6E0,1E0,2E0,5.0482906E-2,9.50534E-2,9E0,3E0,7E0,1.0480281E-1,-7.255145E-2,2.6E1,-4.9152117E-2,8.309546E-2,4E0,1E0,1.4E1,5E0,7.667037E-2,6E0,-8.8592075E-2,6E0,2E0,1E1,2E0,2E0,5.3E1,3E0,1.8E1,5E0,1.471513E-3,1E0,1.025E3,9.050636E-3,1.0556906E-1,2.4806552E-2,-1.15275614E-1,5E0,-1.13629356E-1,1.07134655E-1,7E0,1.1E1,9.77351E-2,2.6E1,1E0,4.8046287E-2,-2.1981029E-2,-1.1573801E-1,5.5E1,5E0,9E0,5E0,4.4E1,3.965545E-2,1.5E1,9.323298E-2,-6.1537217E-2,8E0,2E1,-7.843682E-2,6.306478E-2,1E1,7.495896E-2,-1.1683746E-1,-3.542117E-3,-6.034548E-2,1.7801432E-2,5.983646E-2,-6.732679E-2,1E0,-9.843437E-2,2.5E1,7E0,2.2E1,-1.1645597E-1,6.1E1,-1.0551391E-1,2E0,-1.09040774E-1,4.139742E-2,-8.1349306E-2,-5.67826E-2,1.0133292E-1,-1.2504232E-1,-2.4620794E-2,2.5256038E-2,-7.810644E-2,-3.0505244E-2,-1.1177869E-1,9.419109E-2,-6.2376376E-2,-7.4265213E-3,-6.353342E-2,1.1476296E-1,-1.7370796E-2,-8.376614E-2,2.921596E-2],"split_indices":[7,14,12,12,2,7,1,5,1,10,7,8,0,0,8,10,2,0,0,2,0,0,12,10,16,14,0,1,0,2,8,16,14,14,3,5,3,7,0,14,14,0,0,0,0,3,0,0,1,3,0,8,12,0,0,0,1,10,16,3,3,0,3,0,0,1,1,0,0,3,0,0,0,0,0,0,0,14,0,1,10,1,0,1,0,12,0,0,0,0,0,0,0,0,0,0,0,0,0,0,0,0,0,0,0],"split_type":[0,0,0,0,0,0,0,0,0,0,0,0,0,0,0,0,0,0,0,0,0,0,0,0,0,0,0,0,0,0,0,0,0,0,0,0,0,0,0,0,0,0,0,0,0,0,0,0,0,0,0,0,0,0,0,0,0,0,0,0,0,0,0,0,0,0,0,0,0,0,0,0,0,0,0,0,0,0,0,0,0,0,0,0,0,0,0,0,0,0,0,0,0,0,0,0,0,0,0,0,0,0,0,0,0],"sum_hessian":[1.4373888E3,8.790466E2,5.5834216E2,2.3556674E2,6.4347986E2,5.272753E2,3.1066807E1,1.4472777E2,9.083896E1,6.220736E2,2.1406254E1,5.253407E2,1.9346716E0,5.698864E0,2.5367943E1,1.3353452E1,1.3137433E2,8.982785E1,1.0111104E0,6.2041425E2,1.6593648E0,2.423471E0,1.8982782E1,1.7360703E2,3.5173367E2,2.3095234E1,2.272708E0,9.57103E0,3.782422E0,6.3157978E1,6.821635E1,6.0515955E2,1.5254668E1,1.5809891E1,3.1728926E0,1.1391434E2,5.9692684E1,3.5032907E2,1.4046081E0,2.0067488E1,3.0277472E0,1.3466203E0,8.224409E0,1.1106821E0,6.2047295E1,2.7099543E1,4.1116802E1,6.029123E2,2.2472727E0,5.45482E0,9.799848E0,1.2611268E1,3.1986222E0,2.0906258E0,1.0822668E0,1.1154438E2,2.3699625E0,2.5411041E1,3.4281643E1,3.3947546E2,1.0853583E1,1.4917216E0,1.8575766E1,1.6843898E0,1.3433572E0,1.6038376E1,1.1061167E1,1.0239105E0,1.2233623E0,2.1316555E0,3.3231647E0,1.160729E1,1.003978E0,1.8298398E0,1.3687824E0,1.0537119E0,1.3162504E0,2.3015646E1,2.3953955E0,2.9078278E1,5.2033644E0,2.177218E0,3.3729825E2,2.3766E0,8.476983E0,2.4458249E0,1.6129942E1,2.769847E0,1.3268529E1,1.5416404E0,9.5195265E0,1.0998809E0,1.0317744E0,2.0954525E1,2.061121E0,1.3932936E0,2.7684984E1,2.0458488E0,3.1575153E0,1.1112808E0,1.0659372E0,1.3222418E0,1.0543582E0,1.284186E0,1.161639E0],"tree_param":{"num_deleted":"0","num_feature":"18","num_nodes":"105","size_leaf_vector":"1"}},{"base_weights":[3.7802115E-2,6.965509E-1,-9.955002E-1,-1.07428364E-1,9.8924327E-1,-1.0326391E0,-3.3878583E-1,-7.8817326E-1,1.0028023E0,1.044324E0,-3.4873396E-1,-8.407933E-1,-1.1251425E0,1.7455171E-1,-9.3949294E-1,4.8240095E-1,-9.295883E-1,1.0318259E-1,-1.4382991E-2,1.048581E-1,3.9772737E-1,8.2853384E-2,-9.2374355E-2,-1.1031423E0,-3.5736594E-1,-1.1297731E0,-1.8332427E-2,-6.744916E-2,8.637259E-2,-1.06778465E-1,3.3066936E-2,9.363509E-1,-9.586992E-2,-1.12615146E-1,-5.885484E-1,-7.5824514E-2,8.5275546E-2,4.008766E-1,-5.8511186E-1,-1.12100005E-1,-2.4828273E-1,2.621946E-1,-8.40695E-1,-1.1421658E-1,-6.7032754E-1,8.2504295E-2,-3.793687E-1,1.064736E-1,2.8144343E-2,-2.7779153E-1,-1.0041387E0,6.43623E-1,-3.6175674E-1,-9.0500414E-2,5.7520703E-3,2.9898232E-2,-6.6088274E-2,-6.6040486E-2,1.2265716E-1,-1.0470322E0,2.307388E-1,4.3496546E-1,-1.02860406E-1,4.2709514E-2,-5.903785E-1,-6.545675E-1,5.942895E-1,-6.1105055E-1,-1.116451E-1,8.8364184E-2,-5.755648E-3,-5.5322092E-2,1.1612402E-3,-6.4292645E-1,2.2491354E-1,-1.1346232E-1,6.628771E-2,8.875351E-2,-8.244884E-2,8.3786465E-2,-2.2987029E-2,-8.8013726E-1,3.156845E-2,-9.292338E-3,-7.687258E-2,-1.21049015E-2,7.428526E-2,-7.985531E-2,1.7399115E-2,-1.05871454E-1,1.8461598E-2,5.164514E-2,-9.395743E-2,-1.5899135E-2,-1.0000475E-1],"categories":[],"categories_nodes":[],"categories_segments":[],"categories_sizes":[],"default_left":[0,0,0,0,0,0,0,0,0,0,0,0,0,0,0,0,0,0,0,0,0,0,0,0,0,0,0,0,0,0,0,0,0,0,0,0,0,0,0,0,0,0,0,0,0,0,0,0,0,0,0,0,0,0,0,0,0,0,0,0,0,0,0,0,0,0,0,0,0,0,0,0,0,0,0,0,0,0,0,0,0,0,0,0,0,0,0,0,0,0,0,0,0,0,0],"id":16,"left_children":[1,3,5,7,9,11,13,15,17,19,21,23,25,27,29,31,33,-1,-1,-1,35,37,-1,39,41,43,-1,45,-1,-1,-1,47,-1,-1,49,-1,-1,51,53,-1,55,57,59,-1,61,-1,63,-1,-1,65,67,69,71,-1,-1,-1,-1,73,-1,75,77,79,-1,-1,81,83,85,87,-1,-1,-1,-1,-1,89,91,-1,-1,-1,-1,-1,-1,93,-1,-1,-1,-1,-1,-1,-1,-1,-1,-1,-1,-1,-1],"loss_changes":[9.0889856E2,1.9198218E2,1.2329468E1,1.6594585E2,4.4424988E1,7.7770996E0,9.203474E0,2.4888695E1,2.9272308E0,1.1640625E0,6.129067E0,2.0388199E1,1.2263489E0,2.8351402E0,2.5796957E0,1.0240396E1,7.565239E0,0E0,0E0,0E0,3.4703777E0,3.3890495E0,0E0,1.3359375E0,1.7925045E1,1.095581E0,0E0,4.0017066E0,0E0,0E0,0E0,6.560173E-1,0E0,0E0,5.787424E0,0E0,0E0,2.2050695E0,1.1202604E0,0E0,9.762041E-1,8.52397E0,7.6368294E0,0E0,4.8058214E0,0E0,2.0395968E0,0E0,0E0,9.674119E0,1.8813896E-1,1.4714513E0,2.3607025E-1,0E0,0E0,0E0,0E0,3.6439493E0,0E0,4.980175E0,5.043459E0,1.1025412E0,0E0,0E0,2.5738108E0,1.2242823E0,1.0516477E0,1.1089673E0,0E0,0E0,0E0,0E0,0E0,2.6896548E0,5.441679E0,0E0,0E0,0E0,0E0,0E0,0E0,4.3681097E-1,0E0,0E0,0E0,0E0,0E0,0E0,0E0,0E0,0E0,0E0,0E0,0E0,0E0],"parents":[2147483647,0,0,1,1,2,2,3,3,4,4,5,5,6,6,7,7,8,8,9,9,10,10,11,11,12,12,13,13,14,14,15,15,16,16,20,20,21,21,23,23,24,24,25,25,27,27,31,31,34,34,37,37,38,38,40,40,41,41,42,42,44,44,46,46,49,49,50,50,51,51,52,52,57,57,59,59,60,60,61,61,64,64,65,65,66,66,67,67,73,73,74,74,81,81],"right_children":[2,4,6,8,10,12,14,16,18,20,22,24,26,28,30,32,34,-1,-1,-1,36,38,-1,40,42,44,-1,46,-1,-1,-1,48,-1,-1,50,-1,-1,52,54,-1,56,58,60,-1,62,-1,64,-1,-1,66,68,70,72,-1,-1,-1,-1,74,-1,76,78,80,-1,-1,82,84,86,88,-1,-1,-1,-1,-1,90,92,-1,-1,-1,-1,-1,-1,94,-1,-1,-1,-1,-1,-1,-1,-1,-1,-1,-1,-1,-1],"split_conditions":[2E0,1E0,1E0,1E0,1.4E1,2E0,3.4E1,1E0,1.5E1,1E1,2E0,1E0,1.5E1,3E0,8E0,5E0,1.3E1,1.0318259E-1,-1.4382991E-2,1.048581E-1,1.2E1,1.5E1,-9.2374355E-2,3E0,1.8E1,5E0,-1.8332427E-2,1E0,8.637259E-2,-1.06778465E-1,3.3066936E-2,1E0,-9.586992E-2,-1.12615146E-1,2E0,-7.5824514E-2,8.5275546E-2,2E0,1E0,-1.12100005E-1,2.1E1,1.7E1,9E0,-1.1421658E-1,2E0,8.2504295E-2,2E0,1.064736E-1,2.8144343E-2,6E0,7E0,5.3E1,2.1E1,-9.0500414E-2,5.7520703E-3,2.9898232E-2,-6.6088274E-2,1.5E1,1.2265716E-1,8E0,4.4E1,4E0,-1.02860406E-1,4.2709514E-2,4E0,1.4E1,1.4E1,1.5E1,-1.116451E-1,8.8364184E-2,-5.755648E-3,-5.5322092E-2,1.1612402E-3,1.3E1,5E0,-1.1346232E-1,6.628771E-2,8.875351E-2,-8.244884E-2,8.3786465E-2,-2.2987029E-2,7E0,3.156845E-2,-9.292338E-3,-7.687258E-2,-1.21049015E-2,7.428526E-2,-7.985531E-2,1.7399115E-2,-1.05871454E-1,1.8461598E-2,5.164514E-2,-9.395743E-2,-1.5899135E-2,-1.0000475E-1],"split_indices":[7,14,11,11,4,8,3,5,0,16,10,10,16,8,7,10,0,0,0,0,0,0,0,5,3,7,0,14,0,0,0,10,0,0,8,0,0,14,11,0,3,0,16,0,14,0,5,0,0,3,3,4,3,0,0,0,0,0,0,7,3,8,0,0,14,0,0,0,0,0,0,0,0,3,10,0,0,0,0,0,0,3,0,0,0,0,0,0,0,0,0,0,0,0,0],"split_type":[0,0,0,0,0,0,0,0,0,0,0,0,0,0,0,0,0,0,0,0,0,0,0,0,0,0,0,0,0,0,0,0,0,0,0,0,0,0,0,0,0,0,0,0,0,0,0,0,0,0,0,0,0,0,0,0,0,0,0,0,0,0,0,0,0,0,0,0,0,0,0,0,0,0,0,0,0,0,0,0,0,0,0,0,0,0,0,0,0,0,0,0,0,0,0],"sum_hessian":[1.3332485E3,8.1438763E2,5.188609E2,2.1752208E2,5.9686554E2,4.905467E2,2.8314184E1,1.3502235E2,8.2499725E1,5.7347656E2,2.338896E1,1.6286476E2,3.2768192E2,1.56499E1,1.2664284E1,1.328141E1,1.21740944E2,8.056069E1,1.9390341E0,5.691082E2,4.3684034E0,1.3849667E1,9.539293E0,1.0474129E2,5.8123474E1,3.258801E2,1.801833E0,1.2250362E1,3.3995376E0,1.16472E1,1.0170841E0,1.0366264E1,2.9151454E0,7.576858E1,4.597237E1,1.0456415E0,3.3227618E0,9.653444E0,4.1962223E0,1.0229307E2,2.448213E0,2.5672468E1,3.2451008E1,3.1587402E2,1.0006083E1,2.7465725E0,9.50379E0,8.143975E0,2.222289E0,2.7258387E1,1.8713984E1,7.441018E0,2.2124257E0,2.5290337E0,1.6671889E0,1.1707379E0,1.2774754E0,1.9848394E1,5.8240743E0,2.7229845E1,5.2211623E0,2.3970542E0,7.609029E0,1.7585793E0,7.745211E0,1.9208794E1,8.049593E0,5.5899715E0,1.3124012E1,5.3495917E0,2.0914261E0,1.1440539E0,1.0683719E0,6.248845E0,1.3599548E1,2.6223001E1,1.0068437E0,3.316079E0,1.9050834E0,1.3304973E0,1.0665568E0,5.8901544E0,1.8550564E0,3.5512223E0,1.5657571E1,1.4161177E0,6.633476E0,4.4983554E0,1.0916162E0,3.9732094E0,2.275636E0,1.1321604E1,2.2779455E0,1.1713735E0,4.718781E0],"tree_param":{"num_deleted":"0","num_feature":"18","num_nodes":"95","size_leaf_vector":"1"}},{"base_weights":[2.8453646E-2,6.831075E-1,-9.7460836E-1,4.7805933E-3,1.0191E0,-1.013859E0,-3.253001E-1,-9.601681E-1,4.3378776E-1,1.04805E0,-6.5408313E-1,-1.0197663E0,3.7407834E-2,9.195288E-2,-6.186153E-1,8.876343E-2,-1.09898485E-1,6.9490486E-1,-4.3637303E-1,1.06173374E-1,4.1045085E-1,4.5502163E-2,-1.0492223E-1,-1.1143223E0,-9.0446323E-1,-8.2996565E-1,4.5690754E-1,1.049757E-1,4.0480402E-1,9.87585E-2,-6.9075483E-1,8.565688E-2,-6.7552257E-1,-1.1170127E-1,-3.4549084E-2,2.6161385E-1,-1.0022364E0,-1.8766094E-2,-9.603533E-1,8.439221E-2,-2.7182674E-2,-4.7676325E-1,8.565051E-1,1.05976604E-1,-4.75441E-1,-7.3990655E-1,2.8356243E-2,5.984926E-2,-1.4834373E-1,3.837523E-1,-4.969772E-2,-3.128303E-1,-1.0246993E0,6.6630326E-2,-8.150496E-2,-1.1198459E-2,-1.0539552E-1,-5.999453E-1,1.0207265E-1,9.397717E-1,-2.9516214E-1,1.586912E-4,-6.60156E-1,-5.151283E-1,-1.0201762E-1,-1.039245E-1,6.241286E-1,-5.74633E-1,5.1277738E-2,-1.0405977E0,-6.230711E-1,-7.173855E-2,-3.5024472E-3,-6.0919702E-2,1.0035779E-1,2.993597E-2,-6.639414E-2,-2.6472388E-2,2.9462967E-2,-8.092118E-2,5.210949E-3,-1.1034345E-1,-1.8246261E-2,-4.6814047E-2,8.100144E-3,1.0817497E-1,2.2005174E-2,9.419691E-3,-7.370952E-2,-1.045324E-1,-1.9146783E-2,-1.0000805E-1,5.2426018E-2],"categories":[],"categories_nodes":[],"categories_segments":[],"categories_sizes":[],"default_left":[0,0,0,0,0,0,0,0,0,0,0,0,0,0,0,0,0,0,0,0,0,0,0,0,0,0,0,0,0,0,0,0,0,0,0,0,0,0,0,0,0,0,0,0,0,0,0,0,0,0,0,0,0,0,0,0,0,0,0,0,0,0,0,0,0,0,0,0,0,0,0,0,0,0,0,0,0,0,0,0,0,0,0,0,0,0,0,0,0,0,0,0,0],"id":17,"left_children":[1,3,5,7,9,11,13,15,17,19,21,23,-1,-1,25,-1,-1,27,29,-1,31,-1,-1,33,35,37,39,-1,41,43,45,-1,47,-1,-1,49,51,53,55,-1,-1,57,59,-1,61,63,-1,-1,-1,65,-1,67,69,-1,-1,-1,-1,71,-1,73,75,77,79,81,-1,83,85,87,-1,89,91,-1,-1,-1,-1,-1,-1,-1,-1,-1,-1,-1,-1,-1,-1,-1,-1,-1,-1,-1,-1,-1,-1],"loss_changes":[8.102913E2,1.7016116E2,1.2089874E1,1.0321547E2,2.4871216E1,4.1454163E0,1.1249417E1,2.0658775E1,3.9517746E1,3.8497925E0,4.4689817E0,3.9788818E0,0E0,0E0,5.896392E0,0E0,0E0,1.328067E1,5.5746465E0,0E0,6.3682795E0,0E0,0E0,1.25E-1,2.4363632E1,2.1650972E0,1.5355325E0,0E0,3.0225933E1,8.178476E0,1.5287962E0,0E0,5.044983E0,0E0,0E0,1.7794249E0,2.7030945E0,2.658617E0,1.2924423E0,0E0,0E0,5.410504E0,5.059578E0,0E0,8.255887E-1,1.1437321E0,0E0,0E0,0E0,1.8623133E0,0E0,1.9374825E0,5.561676E-1,0E0,0E0,0E0,0E0,1.6111898E0,0E0,5.2313957E0,1.1028111E0,3.610045E-1,7.60726E-1,3.0717006E0,0E0,4.3663087E-1,1.6875625E0,7.477057E-1,0E0,5.2212524E-1,4.7095037E0,0E0,0E0,0E0,0E0,0E0,0E0,0E0,0E0,0E0,0E0,0E0,0E0,0E0,0E0,0E0,0E0,0E0,0E0,0E0,0E0,0E0,0E0],"parents":[2147483647,0,0,1,1,2,2,3,3,4,4,5,5,6,6,7,7,8,8,9,9,10,10,11,11,14,14,17,17,18,18,20,20,23,23,24,24,25,25,26,26,28,28,29,29,30,30,32,32,35,35,36,36,37,37,38,38,41,41,42,42,44,44,45,45,49,49,51,51,52,52,57,57,59,59,60,60,61,61,62,62,63,63,65,65,66,66,67,67,69,69,70,70],"right_children":[2,4,6,8,10,12,14,16,18,20,22,24,-1,-1,26,-1,-1,28,30,-1,32,-1,-1,34,36,38,40,-1,42,44,46,-1,48,-1,-1,50,52,54,56,-1,-1,58,60,-1,62,64,-1,-1,-1,66,-1,68,70,-1,-1,-1,-1,72,-1,74,76,78,80,82,-1,84,86,88,-1,90,92,-1,-1,-1,-1,-1,-1,-1,-1,-1,-1,-1,-1,-1,-1,-1,-1,-1,-1,-1,-1,-1,-1],"split_conditions":[2E0,1E0,1E0,1.3E1,8E1,9E0,3.6E1,1E0,2.7E1,1E0,1E0,1.5E1,3.7407834E-2,9.195288E-2,6E0,8.876343E-2,-1.09898485E-1,1E0,1E0,1.06173374E-1,2E0,4.5502163E-2,-1.0492223E-1,5E0,1E1,1.5E1,1.23E2,1.049757E-1,1.5E1,1.6E1,6.5E1,8.565688E-2,1E0,-1.1170127E-1,-3.4549084E-2,3.4E1,2.1E1,1E0,2E0,8.439221E-2,-2.7182674E-2,1E0,2.2E1,1.05976604E-1,2.9E1,1.3E1,2.8356243E-2,5.984926E-2,-1.4834373E-1,6E0,-4.969772E-2,1.7E1,5E0,6.6630326E-2,-8.150496E-2,-1.1198459E-2,-1.0539552E-1,6E0,1.0207265E-1,7E0,1.6E1,5.1E1,1.18E2,3.1E1,-1.0201762E-1,1.3E1,1.9E1,1.2E1,5.1277738E-2,1E0,1E0,-7.173855E-2,-3.5024472E-3,-6.0919702E-2,1.0035779E-1,2.993597E-2,-6.639414E-2,-2.6472388E-2,2.9462967E-2,-8.092118E-2,5.210949E-3,-1.1034345E-1,-1.8246261E-2,-4.6814047E-2,8.100144E-3,1.0817497E-1,2.2005174E-2,9.419691E-3,-7.370952E-2,-1.045324E-1,-1.9146783E-2,-1.0000805E-1,5.2426018E-2],"split_indices":[7,12,12,0,1,7,1,5,2,13,13,0,0,0,7,0,0,7,6,0,11,0,0,7,3,3,1,0,0,0,3,0,7,0,0,1,1,13,5,0,0,13,2,0,4,4,0,0,0,3,0,0,7,0,0,0,0,3,0,1,0,1,1,1,0,1,1,3,0,9,5,0,0,0,0,0,0,0,0,0,0,0,0,0,0,0,0,0,0,0,0,0,0],"split_type":[0,0,0,0,0,0,0,0,0,0,0,0,0,0,0,0,0,0,0,0,0,0,0,0,0,0,0,0,0,0,0,0,0,0,0,0,0,0,0,0,0,0,0,0,0,0,0,0,0,0,0,0,0,0,0,0,0,0,0,0,0,0,0,0,0,0,0,0,0,0,0,0,0,0,0,0,0,0,0,0,0,0,0,0,0,0,0,0,0,0,0,0,0],"sum_hessian":[1.2319478E3,7.4562836E2,4.8631943E2,2.473247E2,4.9830365E2,4.5806778E2,2.8251669E1,7.573619E1,1.7158852E2,4.901957E2,8.107945E0,4.5639053E2,1.6772223E0,4.9803085E0,2.327136E1,4.9152026E0,7.082099E1,1.3213805E2,3.9450462E1,4.7924527E2,1.0950422E1,2.0900092E0,6.0179358E0,2.4599486E2,2.1039569E2,1.9640194E1,3.6311674E0,5.8258053E1,7.388E1,1.2908084E1,2.6542381E1,7.9115863E0,3.0388365E0,2.4468573E2,1.3091347E0,1.6146847E1,1.9424884E2,2.8781114E0,1.6762083E1,2.268403E0,1.3627641E0,2.5011179E1,4.8868816E1,4.5116057E0,8.396478E0,2.5496729E1,1.0456514E0,1.2798427E0,1.7589939E0,1.4333222E1,1.8136238E0,6.600516E0,1.8764832E2,1.6348386E0,1.2432728E0,1.8838682E0,1.4878214E1,2.3663969E1,1.3472096E0,4.5745373E1,3.1234436E0,2.62831E0,5.768168E0,1.5723971E1,9.7727585E0,4.9197216E0,9.413501E0,5.2421894E0,1.3583266E0,1.7897278E2,8.675545E0,1.9367762E1,4.296208E0,1.471654E0,4.427372E1,1.2678077E0,1.8556358E0,1.4368517E0,1.1914582E0,4.6574035E0,1.1107645E0,4.842773E0,1.0881198E1,1.1409975E0,3.778724E0,3.627843E0,5.785658E0,1.1066179E0,4.1355715E0,1.7775237E2,1.2204165E0,6.6264553E0,2.0490897E0],"tree_param":{"num_deleted":"0","num_feature":"18","num_nodes":"93","size_leaf_vector":"1"}},{"base_weights":[2.9772881E-2,6.686803E-1,-9.423994E-1,-1.1786566E-1,9.642656E-1,-9.828533E-1,-2.9717878E-1,-7.4988884E-1,9.689373E-1,1.0271353E0,-5.057537E-1,-9.898371E-1,8.5836925E-2,2.0361494E-1,-9.328633E-1,-1.0720823E0,-3.3926868E-1,1.0155647E-1,-8.8250786E-2,1.0312877E0,-3.3311166E-2,8.158868E-2,-7.2954893E-1,-1.0149442E0,-4.8758486E-1,6.437247E-1,-5.23164E-1,-1.00043766E-1,-2.4849365E-2,1.1589761E-2,-1.0939499E-1,8.152212E-2,-4.1753942E-1,1.4596425E-2,1.033052E0,-9.1402453E-1,2.0324956E-1,-7.690612E-1,-1.0560846E0,4.7635603E-1,-1.0542909E-1,7.7750035E-2,-2.2964371E-2,6.2779404E-2,-8.981424E-2,-4.6817118E-1,7.802141E-2,1.0364528E0,4.5797497E-1,-1.0290014E-1,-2.1187054E-1,4.180897E-2,-1.9199638E-2,-9.886594E-1,4.870048E-1,-1.0646131E0,-2.2926284E-1,7.179889E-1,-6.432559E-2,-7.7830446E-1,-2.67714E-1,1.0421272E-1,7.032116E-1,-5.0404696E-3,7.88847E-2,3.0623866E-2,-6.4816296E-2,-1.1071932E-1,-3.8149405E-1,7.373957E-1,-7.138597E-2,-6.5147537E-1,-1.0707032E-1,7.877497E-2,-8.0974005E-2,1.028111E-1,1.7549759E-1,1.5878431E-2,-8.748091E-2,-7.756429E-2,-5.454532E-3,-5.1558804E-4,9.807598E-2,2.5037918E-3,-9.8688886E-2,-2.2449896E-2,9.6107736E-2,-8.36441E-2,2.3749804E-2,-6.3469134E-2,7.2191976E-2],"categories":[],"categories_nodes":[],"categories_segments":[],"categories_sizes":[],"default_left":[0,0,0,0,0,0,0,0,0,0,0,0,0,0,0,0,0,0,0,0,0,0,0,0,0,0,0,0,0,0,0,0,0,0,0,0,0,0,0,0,0,0,0,0,0,0,0,0,0,0,0,0,0,0,0,0,0,0,0,0,0,0,0,0,0,0,0,0,0,0,0,0,0,0,0,0,0,0,0,0,0,0,0,0,0,0,0,0,0,0,0],"id":18,"left_children":[1,3,5,7,9,11,13,15,17,19,21,23,-1,25,27,29,31,-1,-1,33,-1,-1,35,37,39,41,43,-1,-1,-1,-1,-1,45,-1,47,49,51,53,55,57,-1,-1,-1,-1,-1,59,-1,61,63,-1,65,-1,-1,67,69,71,73,75,-1,77,79,-1,81,-1,-1,-1,-1,-1,83,85,-1,87,-1,-1,-1,-1,89,-1,-1,-1,-1,-1,-1,-1,-1,-1,-1,-1,-1,-1,-1],"loss_changes":[7.093713E2,1.6033057E2,1.1529968E1,1.3063557E2,4.682187E1,6.3244934E0,9.153118E0,1.5531761E1,6.937462E0,3.0592651E0,6.8710485E0,4.85968E0,0E0,5.636713E0,3.334446E-1,1.8637009E0,5.2460017E0,0E0,0E0,5.982361E-1,0E0,0E0,3.3990698E0,3.2693481E0,1.2596989E1,1.4366746E0,3.499084E0,0E0,0E0,0E0,0E0,0E0,3.4886065E0,0E0,4.6102905E-1,1.0552921E0,4.1154888E-1,1.7448494E1,2.174408E0,2.865856E0,0E0,0E0,0E0,0E0,0E0,2.9024582E0,0E0,1.651001E-1,8.1426513E-1,0E0,9.8480874E-1,0E0,0E0,3.369606E0,3.48029E0,1.5588379E-1,3.4574087E0,1.128684E0,0E0,1.8680592E0,3.4135792E0,0E0,2.1726708E0,0E0,0E0,0E0,0E0,0E0,2.518257E0,2.0705972E0,0E0,1.4288044E0,0E0,0E0,0E0,0E0,2.2450154E0,0E0,0E0,0E0,0E0,0E0,0E0,0E0,0E0,0E0,0E0,0E0,0E0,0E0,0E0],"parents":[2147483647,0,0,1,1,2,2,3,3,4,4,5,5,6,6,7,7,8,8,9,9,10,10,11,11,13,13,14,14,15,15,16,16,19,19,22,22,23,23,24,24,25,25,26,26,32,32,34,34,35,35,36,36,37,37,38,38,39,39,45,45,47,47,48,48,50,50,53,53,54,54,55,55,56,56,57,57,59,59,60,60,62,62,68,68,69,69,71,71,76,76],"right_children":[2,4,6,8,10,12,14,16,18,20,22,24,-1,26,28,30,32,-1,-1,34,-1,-1,36,38,40,42,44,-1,-1,-1,-1,-1,46,-1,48,50,52,54,56,58,-1,-1,-1,-1,-1,60,-1,62,64,-1,66,-1,-1,68,70,72,74,76,-1,78,80,-1,82,-1,-1,-1,-1,-1,84,86,-1,88,-1,-1,-1,-1,90,-1,-1,-1,-1,-1,-1,-1,-1,-1,-1,-1,-1,-1,-1],"split_conditions":[2E0,1E0,1E0,1E0,4.3E1,1E1,1.23E2,1.3E1,2.9E1,8E0,1E0,9E0,8.5836925E-2,1E0,7.64E2,2E0,1E0,1.0155647E-1,-8.8250786E-2,4E0,-3.3311166E-2,8.158868E-2,4E0,2.1E1,1E1,3.6E1,1E0,-1.00043766E-1,-2.4849365E-2,1.1589761E-2,-1.0939499E-1,8.152212E-2,1E0,1.4596425E-2,1.4E1,9.8E1,8E1,1.6E1,6E0,5.5E1,-1.0542909E-1,7.7750035E-2,-2.2964371E-2,6.2779404E-2,-8.981424E-2,5E0,7.802141E-2,2.6E1,3.4E1,-1.0290014E-1,1E0,4.180897E-2,-1.9199638E-2,1.5E1,5E0,6E0,7.2E1,3E0,-6.432559E-2,6E0,1.4E1,1.0421272E-1,2E0,-5.0404696E-3,7.88847E-2,3.0623866E-2,-6.4816296E-2,-1.1071932E-1,4E0,1E0,-7.138597E-2,1.5E1,-1.0707032E-1,7.877497E-2,-8.0974005E-2,1.028111E-1,4E1,1.5878431E-2,-8.748091E-2,-7.756429E-2,-5.454532E-3,-5.1558804E-4,9.807598E-2,2.5037918E-3,-9.8688886E-2,-2.2449896E-2,9.6107736E-2,-8.36441E-2,2.3749804E-2,-6.3469134E-2,7.2191976E-2],"split_indices":[7,14,12,12,1,7,1,0,1,10,7,16,0,13,1,4,7,0,0,1,0,0,12,1,10,4,14,0,0,0,0,0,13,0,4,4,1,0,7,4,0,0,0,0,0,4,0,2,1,0,13,0,0,0,10,4,1,7,0,2,0,0,14,0,0,0,0,0,10,10,0,0,0,0,0,0,4,0,0,0,0,0,0,0,0,0,0,0,0,0,0],"split_type":[0,0,0,0,0,0,0,0,0,0,0,0,0,0,0,0,0,0,0,0,0,0,0,0,0,0,0,0,0,0,0,0,0,0,0,0,0,0,0,0,0,0,0,0,0,0,0,0,0,0,0,0,0,0,0,0,0,0,0,0,0,0,0,0,0,0,0,0,0,0,0,0,0,0,0,0,0,0,0,0,0,0,0,0,0,0,0,0,0,0,0],"sum_hessian":[1.1400547E3,6.8813043E2,4.519242E2,1.8812779E2,5.0000266E2,4.2476883E2,2.7155373E1,1.19148026E2,6.897976E1,4.7978458E2,2.021809E1,4.2362442E2,1.1444143E0,1.5569431E1,1.1585941E1,6.586002E1,5.3288002E1,6.772561E1,1.254151E0,4.7856546E2,1.21911E0,2.5446677E0,1.7673422E1,4.0248383E2,2.11406E1,9.76836E0,5.801071E0,1.0124423E1,1.4615184E0,1.1126795E0,6.4747345E1,2.7855697E0,5.050243E1,1.1183093E0,4.7744714E2,1.4772128E1,2.9012942E0,6.0512627E1,3.419712E2,7.8861136E0,1.3254486E1,8.566049E0,1.2023116E0,1.2598565E0,4.541215E0,4.9038586E1,1.4638472E0,4.7384274E2,3.6044226E0,1.2293577E1,2.4785504E0,1.8421681E0,1.0591263E0,5.1688766E1,8.82386E0,3.381952E2,3.7760198E0,6.7813005E0,1.1048132E0,1.8120764E1,3.091782E1,4.6381757E2,1.0025162E1,1.7552183E0,1.8492044E0,1.2693049E0,1.2092457E0,4.2557022E1,9.131744E0,7.6208014E0,1.2030587E0,6.48133E0,3.3171384E2,1.2423373E0,2.5336826E0,3.7451637E0,3.0361366E0,1.6316447E0,1.648912E1,8.359807E0,2.2558012E1,3.098498E0,6.926664E0,6.0366697E0,3.0950747E0,1.4371206E0,6.1836805E0,5.4139595E0,1.0673704E0,1.1578435E0,1.8782933E0],"tree_param":{"num_deleted":"0","num_feature":"18","num_nodes":"91","size_leaf_vector":"1"}},{"base_weights":[2.6483303E-2,6.6252387E-1,-9.343108E-1,-9.377539E-2,9.5301634E-1,-9.4797224E-1,9.814919E-2,-6.766509E-1,9.4723827E-1,1.0079473E0,-3.8814437E-1,-9.800271E-1,-3.817688E-1,-1.05874576E-1,-2.2854501E-1,1.0014403E-1,-9.556803E-2,1.0140584E0,-5.6747694E-2,1.5058193E-1,-9.148369E-1,-7.971201E-1,-1.0691748E0,7.0028104E-2,-6.60381E-1,7.2245255E-2,-7.4402195E-1,1.0281214E0,6.446277E-1,6.120659E-1,-6.671104E-1,-9.903793E-2,-1.8645119E-2,-1.0081636E0,-4.1975397E-1,-1.0751989E0,3.7699013E-3,-8.1138116E-1,7.1743704E-2,-1.425649E-1,7.123203E-1,6.421452E-2,-8.7657046E-1,1.0342182E-1,-5.733667E-2,1.7064244E-1,9.456923E-2,8.278284E-2,-2.450774E-4,-7.253586E-3,-8.41905E-2,-1.0445166E-1,5.0012123E-2,2.221979E-2,-7.9521185E-1,-1.4908738E-2,-1.0812054E0,2.310225E-3,-8.9921737E-1,7.533368E-2,-2.6274872E-1,8.354648E-1,-2.6023553E-3,-9.6372324E-1,3.0567706E-2,-3.681052E-1,8.589953E-2,-5.292807E-1,9.4050044E-1,-1.0428051E-1,2.2281913E-1,-1.0930133E-1,-6.5796435E-1,-9.7191155E-2,-2.3815608E-2,-5.0386276E-2,-8.19162E-3,2.8051183E-2,1.23443E-1,-4.3155022E-2,-1.03274286E-1,-1.4140235E-1,7.506744E-2,-9.3167916E-2,-7.0984587E-3,1.160257E-1,-2.7435234E-2,8.46592E-2,-7.768529E-2,-9.463643E-2,8.446925E-2],"categories":[],"categories_nodes":[],"categories_segments":[],"categories_sizes":[],"default_left":[0,0,0,0,0,0,0,0,0,0,0,0,0,0,0,0,0,0,0,0,0,0,0,0,0,0,0,0,0,0,0,0,0,0,0,0,0,0,0,0,0,0,0,0,0,0,0,0,0,0,0,0,0,0,0,0,0,0,0,0,0,0,0,0,0,0,0,0,0,0,0,0,0,0,0,0,0,0,0,0,0,0,0,0,0,0,0,0,0,0,0],"id":19,"left_children":[1,3,5,7,9,11,-1,13,15,17,19,21,23,-1,25,-1,-1,27,-1,29,31,33,35,-1,37,39,41,43,45,47,49,-1,-1,51,53,55,-1,57,-1,59,61,-1,63,-1,-1,65,-1,-1,-1,-1,-1,-1,-1,67,69,-1,71,-1,73,-1,75,77,-1,79,-1,81,-1,83,85,-1,87,-1,89,-1,-1,-1,-1,-1,-1,-1,-1,-1,-1,-1,-1,-1,-1,-1,-1,-1,-1],"loss_changes":[6.428681E2,1.3914514E2,1.1897491E1,1.07771286E2,3.4087067E1,7.1864624E0,0E0,1.9236938E1,7.5363884E0,4.8083496E0,5.448924E0,5.5658264E0,7.6851487E0,0E0,8.369952E0,0E0,0E0,1.6144714E0,0E0,4.2241225E0,3.4391022E-1,1.0161865E1,1.785553E0,0E0,4.6530495E0,4.8839655E0,4.2105465E0,4.699463E0,2.514915E0,9.282317E-1,3.6780035E-1,0E0,0E0,5.157013E0,8.212557E0,1.2868652E0,0E0,1.3477354E0,0E0,3.0917392E0,8.3156586E-1,0E0,2.2051888E0,0E0,0E0,3.4703867E0,0E0,0E0,0E0,0E0,0E0,0E0,0E0,1.2477713E1,6.9694386E0,0E0,5.7266235E-1,0E0,5.568638E-1,0E0,1.0242683E0,1.3505359E0,0E0,1.974945E-1,0E0,7.463556E0,0E0,2.7774467E0,2.7841482E0,0E0,4.432008E0,0E0,4.928478E0,0E0,0E0,0E0,0E0,0E0,0E0,0E0,0E0,0E0,0E0,0E0,0E0,0E0,0E0,0E0,0E0,0E0,0E0],"parents":[2147483647,0,0,1,1,2,2,3,3,4,4,5,5,7,7,8,8,9,9,10,10,11,11,12,12,14,14,17,17,19,19,20,20,21,21,22,22,24,24,25,25,26,26,27,27,28,28,29,29,30,30,33,33,34,34,35,35,37,37,39,39,40,40,42,42,45,45,53,53,54,54,56,56,58,58,60,60,61,61,63,63,65,65,67,67,68,68,70,70,72,72],"right_children":[2,4,6,8,10,12,-1,14,16,18,20,22,24,-1,26,-1,-1,28,-1,30,32,34,36,-1,38,40,42,44,46,48,50,-1,-1,52,54,56,-1,58,-1,60,62,-1,64,-1,-1,66,-1,-1,-1,-1,-1,-1,-1,68,70,-1,72,-1,74,-1,76,78,-1,80,-1,82,-1,84,86,-1,88,-1,90,-1,-1,-1,-1,-1,-1,-1,-1,-1,-1,-1,-1,-1,-1,-1,-1,-1,-1],"split_conditions":[2E0,1E0,1E1,1E0,4.8E1,1E0,9.814919E-2,1.3E1,2.9E1,7E0,1.5E1,2E0,3.6E1,-1.05874576E-1,2E0,1.0014403E-1,-9.556803E-2,2.4E1,-5.6747694E-2,1E0,1.3E1,1E0,1.5E1,7.0028104E-2,6E0,3.2E1,1E0,1E1,2E0,2E0,7.2E1,-9.903793E-2,-1.8645119E-2,3E0,5E0,1.7E1,3.7699013E-3,1E0,7.1743704E-2,1E0,1E0,6.421452E-2,1E0,1.0342182E-1,-5.733667E-2,2E0,9.456923E-2,8.278284E-2,-2.450774E-4,-7.253586E-3,-8.41905E-2,-1.0445166E-1,5.0012123E-2,1.6E1,9E0,-1.4908738E-2,5E0,2.310225E-3,5E0,7.533368E-2,1E1,4.3E1,-2.6023553E-3,1E0,3.0567706E-2,3E0,8.589953E-2,1.5E1,3.4E1,-1.0428051E-1,4.8E1,-1.0930133E-1,1E0,-9.7191155E-2,-2.3815608E-2,-5.0386276E-2,-8.19162E-3,2.8051183E-2,1.23443E-1,-4.3155022E-2,-1.03274286E-1,-1.4140235E-1,7.506744E-2,-9.3167916E-2,-7.0984587E-3,1.160257E-1,-2.7435234E-2,8.46592E-2,-7.768529E-2,-9.463643E-2,8.446925E-2],"split_indices":[7,14,7,11,2,11,0,0,1,10,0,8,1,0,8,0,0,2,0,13,8,10,16,0,16,1,7,16,8,14,1,0,0,7,10,1,0,14,0,7,10,0,15,0,0,16,0,0,0,0,0,0,0,0,16,0,7,0,14,0,1,1,0,5,0,11,0,0,1,0,1,0,16,0,0,0,0,0,0,0,0,0,0,0,0,0,0,0,0,0,0],"split_type":[0,0,0,0,0,0,0,0,0,0,0,0,0,0,0,0,0,0,0,0,0,0,0,0,0,0,0,0,0,0,0,0,0,0,0,0,0,0,0,